45919.6 28795.5 -7012.3 5004.19 -1204.1 4380.74 -8644.59 -623.4 -1739.22 -4278.84 735.615 -648.226 -1488.2 -4905.9 617.983 -4006.91 527.205 717.609 -2276.51 -502.879 562.551 -1037.08 -683.77 -1287.94 -11.5034 414.302 1018.36 -599.697 -3714.34 924.226 -287.388 479.213 490.047 -856.155 256.127 1538.18 1820.03 -291.891 -727.652 2220.77 -1273.68 -1360.24 1395.01 217.378 -1126.51 940.827 -859.293 -887.105 -593.787 1220.11 -317.945 917.587 -991.504 524.52 -1885.47 -156.272 1026.87 497.624 -270.411 642.524 701.183 1750.1 -296.096 125.09 -1170.46 -502.474 -612.289 -831.951 -115.145 356.04 17.0122 -471.046 -2480.37 1398.22 -773.916 -926.478 -640.194 408.236 -490.571 -240.178 307.744 -374.575 284.648 664.061 -454.83 161.333 -243.97 -529.561 105.271 835.412 84.4305 159.586 -274.246 1248.22 354.16 1550.58 -945.406 171.53 -953.98 -1798.98 3533.7 -645.959 1162.61 2692.67 86.4397 199.349 1170.21 745.834 1613.85 -21.3503 -1170.12 -257.594 686.256 -760.869 -130.785 -644.677 2001.31 -600.746 421.8 -737.334 460.371 -764.583 1048.1 -814.715 2160.94 983.187 2206.82 198.209 1841.39 215.787 -366.027 51.3502 -378.131 526.311 608.97 -565.34 678.772 -442.579 180.542 -1058.26 -1624.23 -1225.8 1420.63 -341.685 451.92 237.697 -975.072 -41.3951 313.796 50.1368 -795.247 -305.4 -9.9794 448.178 -752.138 50.0034 -832.071 -715.827 -247.863 -1601.06 29.3067 10.1471 -388.934 746.518 243.161 -302.952 373.934 -187.434 -665.952 551.727 -374.935 -160.802 373.172 891.715 -145.859 182.875 -40.0089 12.8909 -554.012 64.6542 2.51711 -526.487 321.307 -287.061 657.646 -93.0674 -545.221 -336.324 1130.67 -122.566 -41.8378 68.1514 54.4954 -146.029 217.511 262.033 71.1392 -230.812 -94.7652 32.3872 -460.705 37.3143 160.438 -33.7624 -18.6073 -148.193 -155.395 140.139 -53.7485 165.004 -55.2705 85.2562 434.519 -124.437 -259.647 -97.3073 -76.0063 -110.48 398.567 18.5393 -30.0284 -23.7774 -128.671 -113.58 133.895 -168.346 -113.526 -45.4621 199.917 -112.734 122.94 -143.335 -441.334 -146.508 -143.445 -177.606 211.674 5.1153 -10.5165 -77.9679 1.08093 56.3553 -66.0858 167.542 -170.096 60.6729 264.617 -124.539 148.265 -52.8416 25.5657 -80.2255 14.7583 84.81 24.0552 -36.0228 104.686 -18.9728 -188.09 51.3956 -36.6593 -81.228 -36.1747 15.0266 108.808 -285.032 -0.144719 32.1851 -1.08434 12.3386 63.9315 -46.8135 -55.9023 -13.5033 38.0082 -162.603 -193.406 -147.36 -11.4536 -22.7202 -80.7601 -274.859 -73.9819 -73.9792 -55.075 -4.27398 -164.169 51.8845 -27.32 15.7015 -155.772 163.402 -104.774 65.4323 47.0201 7.54016 -124.781 -75.5785 70.764 -6.5308 112.565 -12.2384 -179.808 -25.0357 -82.3958 -13.2052 14.5419 86.8553 11.5582 10.6445 104.572 5.73313 72.3032 22.3717 -13.2889 -1.87881 13.7149 28.2407 28.3049 -2.4471 138.112 -46.5827 18.4822 1.11126 -0.648791 -50.4236 1.7471 
45203.6 30424.5 -8616.16 2461.36 -5334.67 -3785.27 -8322.34 -6815.4 -3150.6 -2590.22 -392.757 -2744.25 -3023.88 -1738.5 2761.14 -477.59 466.125 -2602.24 432.89 14.1643 403.266 1209.53 -1159.17 -239.488 -957.707 -1915.35 635.274 557.967 -784.947 345.426 -357.088 1561.31 -1806.15 105.376 -848.061 -38.3989 8.55832 724.537 -1567.5 -1430.66 192.848 -1624.9 -112.71 -1108.1 102.361 -1212.71 1322.15 1126.85 -136.43 -450.353 -950.72 2335.59 302.856 -525.832 -362.847 -1548.37 -316.567 -833.087 -1255.25 -854.795 -492.153 -1077.13 654.968 -640.556 -752.7 -680.245 -615.235 1170.7 -1692.74 245.801 572.938 426.813 969.061 -519.264 278.524 68.8814 849.083 -596.535 142.168 -1124.87 -1682.65 447.658 -418.866 352.795 1165.73 -1052.49 970.755 -1019.5 -1818.63 -543.407 -345.843 659.303 57.9191 385.414 420.554 -317.662 1004.96 36.6566 202.883 -647.396 902.231 285.753 -955.728 510.192 14.2578 336.146 -96.1089 -672.317 -72.7766 101.286 -524.203 -1238.34 237.92 -320.644 -147.6 71.7641 -311.288 86.9371 53.769 -53.1994 166.857 26.0543 -214.28 -238.351 -201.038 134.481 -272.649 -734.689 87.7318 164.485 -33.8207 -5.49112 -44.0505 295.963 487.939 274.634 -87.6265 -399.259 -2.54126 211.147 299.248 -150.086 137.201 279.801 -42.7573 -103.413 -99.4511 -134.165 101.005 -257.352 55.986 -241.027 171.12 247.865 78.1486 158.581 485.965 11.0694 -317.552 12.2989 -376.193 312.492 -153.566 66.3861 121.236 129.363 106.903 -123.088 -306.251 -301.748 -43.8981 -101.863 184.159 -274.931 -86.7445 269.718 219.034 143.47 166.461 235.076 86.9183 -127.603 -107.336 29.5438 145.587 46.1034 -5.67152 -80.6223 211.711 -6.36196 -86.6443 78.5452 67.7554 -177.613 89.7906 88.0196 0.18505 77.5176 81.5246 78.4732 43.0161 -183.764 -262.056 31.8003 -43.3002 -189.886 85.6741 -188.813 -28.0956 88.9287 192.812 219.635 31.2518 152.86 -134.286 172.19 -115.153 -234.861 42.1531 19.95 98.8934 -163.773 -121.922 -85.6975 -2.70857 131.269 -85.8428 -124.328 192.948 -90.645 -6.7802 61.2847 164.033 -196.016 -55.9387 77.0136 -200.344 -280.107 139.428 -36.3412 -49.5678 84.9907 55.0355 58.9307 80.3919 -81.3305 -22.3037 -125.461 -75.5622 60.6736 52.6011 87.1493 186.43 113.186 118.964 -23.5651 -151.885 206.254 97.7155 125.789 75.409 89.0917 29.0142 127.072 88.6238 4.84264 -39.555 -10.9992 11.8205 -271.965 -141.492 -20.7575 -19.3067 9.08188 -13.5989 87.5481 -122.66 -61.6449 156.585 45.2533 345.54 -166.667 -37.4688 -21.4932 -31.8619 -8.55336 14.7918 -169.228 32.8756 -302.514 83.7618 300.529 211.49 45.1675 -6.69248 -338.854 -82.1051 -97.9839 49.1466 108.7 -88.0965 126.945 311.963 203.666 -120.131 109.176 199.437 -207.2 -48.6659 -85.5337 1.6676 94.6121 -543.939 -184.005 66.2902 228.247 -90.0063 -152.815 -427.821 -170.975 -1526.22 242.988 -670.362 157.744 471.924 1415.8 65.4973 
45285.9 30043.7 -7450.47 3406.62 -4985.82 -4635.14 -7908.89 -7705.1 -3669.36 -3172 -97.2246 -1637.44 -2429.73 -2376 2192.84 -123.872 1381.3 -2513.52 167.828 362.408 492.641 681.144 -1183.96 -672.148 -1901.75 -1281.03 29.1318 671.946 -418.697 32.8241 -337.255 1048.76 -1661.62 -156.43 -1363.44 -520.883 -151.116 523.363 -1549.6 -1153.66 437.285 -1863.18 -294.7 -1180.14 170.7 -1365.58 1253.55 1187.16 587.004 -741.363 -1111.69 2639.43 452.986 -1448.74 -588.876 -1486.52 -841.129 -751.509 -1363.07 -1276.99 -466.448 -1312.76 542.977 -1022.35 -436.026 -464.89 -851.362 1229.09 -1115.26 383.815 259.584 1140.68 778.949 -786.749 50.9643 55.2784 1014.34 -467.68 301.16 -497.189 -1735.02 470.266 -639.787 -90.9211 1111.89 -1300.1 996.633 -1093.02 -2206.55 -482.746 -171.486 1226.77 141.737 262.996 312.126 -172.23 1531.25 322.748 282.023 -381.506 536.898 25.8356 -1015.54 244.84 236.199 93.4438 -191.162 -500.755 -288.371 -508.131 -521.627 -1006.58 220.924 29.9549 -360.22 -106.725 -922.672 -158.579 125.6 -1.90934 229.57 -17.6565 -233.634 -539.078 -239.225 85.2023 -580.667 -452.582 -102.413 329.339 85.8378 -12.1208 -136.889 76.9236 464.85 508.588 87.7805 -66.7241 185.593 218.636 183.504 -275.122 9.61249 295.298 -233.362 -15.2667 188.214 -33.2265 294.395 -416.99 -36.0351 -30.2606 431.891 311.892 180.696 -94.4348 195.661 377.8 -364.829 541.747 -280.472 -173.44 124.788 -125.362 18.5696 217.287 316.375 -41.2458 -188.474 62.7255 38.5526 15.5774 159.5 -167.799 -122.738 107.876 94.1812 113.565 32.0097 155.293 5.03723 -107.195 -173.174 267.582 125.934 -156.992 28.2755 -127.144 133.828 180.86 106.539 -93.0863 -2.95433 -206.062 -67.5729 155.041 65.0786 1.74867 -58.065 171.343 -27.4573 7.5876 47.5782 313.742 144.843 -244.903 -62.4359 -69.0354 165.412 -2.36667 245.564 130.396 52.9824 102.267 -105.044 -6.62776 13.4364 -118.43 14.228 233.852 130.263 95.1023 77.6862 52.1605 31.0175 -29.4573 -142.797 108.438 136.213 -277.267 253.998 66.0006 -65.2798 126.153 125.036 -121.363 267.986 -132.872 -49.1563 123.113 -236.864 -60.2512 -249.604 50.6776 114.716 -52.1157 182.824 58.4111 -72.079 -91.7056 272.663 -45.3873 -63.1781 36.395 -11.8381 116.749 -138.655 -54.1584 -26.5229 -19.7402 -29.1927 -31.9527 -91.5294 112.635 87.2697 -97.9275 -89.5723 56.6832 -85.3761 -141.363 22.898 32.6836 106.69 -124.046 -120.145 -134.738 -2.18499 18.649 88.3989 -0.393353 71.6792 -482.192 -157.413 -27.4012 -9.74022 -15.1256 -76.2874 -253.723 -52.7533 -117.567 -164.985 167.427 24.7692 39.3438 -97.3162 -58.2397 21.6376 -247.601 101.328 -24.9479 134.572 91.6586 -26.2346 -28.0252 -33.5417 -107.753 -77.9637 -23.8882 199.875 97.5253 13.2901 153.631 69.2157 -100.029 -334.641 -256.104 -107.727 17.7818 16.7987 -43.8594 -225.067 104.419 -409.832 -189.352 -314.529 -1987.13 -31.228 
45353.8 30259.4 -8218.65 3139.97 -4933.44 -3957.66 -8415.47 -6955.45 -2714.13 -2678.17 -639.75 -1980.31 -3047.47 -1336.84 2857.27 -1320.49 1377.63 -2540.79 774.738 -810.84 531.299 835.721 -1521.67 -92.4742 -360.6 -1601.55 837.825 1058.36 -153.562 -327.99 -322.632 1626.61 -1532.54 -160.735 -1291.99 80.35 116.739 582.878 -834.221 -969.096 277.675 -1057.84 -152.288 -1250.79 79.0623 -1037.02 1290.78 1637.53 527.706 -388.464 -1250.13 2464.54 33.9332 -764.556 67.2288 -1128.16 -485.391 -870.309 -1172.85 -880.399 -403.764 -1171.19 692.041 -445.896 -65.7181 -476.039 -521.979 963.514 -1369.49 -146.68 434.978 986.4 1082.24 -567.976 252.22 220.412 829.771 -1256.24 -353.977 -995.058 -1876.11 693.872 -525.717 333.634 1840.75 -1022.43 747.05 -1217.3 -1770.52 -343.102 -136.839 829.359 -165.648 -25.9002 286.268 -140.73 1140 -123.465 -268.32 -205.477 665.386 155.678 -974.528 296.37 63.7823 -65.7077 -117.792 -883.634 -76.4119 1.38516 -511.189 -1413.36 11.9126 244.099 -142.518 157.272 -934.116 -328.522 147.571 -261.823 225.962 -277.878 201.543 -54.4117 -643.801 -9.21469 -238.904 -572.319 81.7855 244.868 132.968 324.698 166.282 180.047 447.933 67.1636 -20.5495 25.638 -37.5464 405.454 94.9842 -374.428 45.7621 64.4254 -43.2817 235.773 107.504 -421.694 248.119 -101.34 225.498 -270.434 316.639 136.147 315.713 341.495 66.1359 -82.6264 -239.746 412.089 -65.0342 -102.032 103.965 142.45 -129.578 331.934 -148.776 0.651666 -144.427 -178.703 192.752 37.9013 363.73 -39.1156 -348.383 126.927 4.54194 39.2983 223.863 -127.304 -164.866 -163.403 122.298 88.1136 -153.606 92.744 -191.696 -201.083 153.661 -167.23 -86.6151 -68.739 252.871 -82.4736 -114.138 21.3715 82.2925 -59.4504 -29.4845 59.2247 -62.6659 156.424 267.81 212.871 -106.625 -16.7265 114.164 15.6856 -316.976 -37.3359 -47.7796 -21.399 247.091 -133.826 209.042 -16.6723 -84.3711 -161.985 -327.706 -168.436 -349.677 134.176 -26.541 90.0912 174.792 -100.648 77.2701 -74.627 154.149 -51.6554 52.1015 162.828 -125.78 217.827 -67.9972 147.005 -63.0253 186.65 65.4405 129.171 213.962 -157.94 101.33 -7.8097 -117.882 -17.7589 28.1978 163.368 4.46281 183.715 -125.982 -108.513 -260.271 -257.113 -303.373 -258.722 442.323 53.2976 99.2345 -92.1909 -44.5172 -102.849 30.6995 -34.4445 -222.095 29.0423 42.2505 -50.4293 181.646 382.067 -27.4689 50.406 -103.532 -92.9783 273.633 54.7769 117.118 122.247 -262.075 -8.18725 -174.642 630.206 153.552 51.5004 20.7707 158.519 104.306 542.89 58.6308 428.094 29.0865 -444.558 -263.746 -59.2616 -10.8812 397.049 59.8919 319.859 -197.387 -27.6769 -77.0383 -184.278 -252.689 -87.1048 119.018 -21.9261 -97.0963 252.658 -169.411 41.1837 -81.9987 -260.148 462.289 329.669 302.692 140.503 256.117 148.891 467.934 166.851 1705.02 -322.437 1041.08 49.306 -149.484 677.867 -41.3571 
45206.3 30001.6 -8484.34 1874.71 -8566.76 -3059.59 -7757.9 -8718.17 -3023.2 -2522.01 1533.84 -2229.45 -3274.52 -1091.97 1595.67 -1314.19 -1551.24 -1217.91 190.189 -201.721 355.714 135.993 1135.43 -2321.51 -571.853 104.225 857.697 63.0258 985.739 -110.147 1778.11 430.33 -993.623 573.44 1061.2 -242.873 502.658 -1087.12 277.309 1618.89 1165.52 -695.649 315.424 -495.68 -516.731 614.209 -1056.33 599.814 -1109.15 -103.206 1203.44 -424.211 -589.398 2163.08 403.297 -114.654 604.408 -763.407 -405.831 296.45 -606.299 -346.27 -39.6796 409.94 -56.6895 467.39 591.843 325.464 -396.742 542.443 167.472 -694.404 -351.441 -711.518 -112.964 -106.803 -737.705 276.369 -634.247 113.845 301.193 358.333 -336.176 -83.0552 -1156.46 88.2926 -50.8562 504.124 1050.63 -499.904 -54.7697 -262.287 243.783 197.496 -494.549 245.878 -836.705 -203.149 89.8482 -228.099 -315.481 73.8092 241.728 -438.19 -53.6181 186.74 97.6264 -390.004 -111.308 119.136 322.925 168.52 -19.4635 -226.351 83.8634 49.1656 -171.104 310.477 -43.6912 -58.1458 -109.401 304.602 -213.501 476.292 -49.59 27.7321 -346.622 316.98 -227.493 -94.5862 -365.026 62.4015 176.769 117.72 75.289 -209.645 -14.0025 143.379 -111.955 -18.5703 504.351 115.118 -120.881 -159.757 75.5831 -257.757 0.46307 176.18 -120.701 265.985 479.169 -11.96 -408.162 -116.199 -57.8048 -76.1363 279.379 32.0683 -68.6452 -323.665 -221.464 193.867 -9.30839 -18.5706 -225.863 -271.289 -459.175 -297.131 -134.902 -248.825 44.8661 137.428 111.549 -264.569 192.842 -0.221652 -98.8473 -49.9102 179.695 -62.1029 -68.6971 289.069 299.513 149.136 -172.634 236.489 38.9384 164.22 -605.622 -360.583 -271.24 180.574 -296.462 205.488 -276.888 63.8813 -124.884 305.079 -15.2078 -411.069 244.051 -127.213 20.1102 -614.347 -58.4786 82.0184 330.756 258.355 -39.1619 279.733 200.604 -180.242 34.7647 37.8381 -202.523 -204.233 241.153 6.52506 193.364 63.5803 162.517 -280.051 368.577 -181.465 -55.0965 414.686 15.4404 -252.325 196.191 309.761 -90.5209 -240.628 119.868 -10.0406 78.6546 -156.181 -332.648 -146.031 -4.54048 -171.68 -5.40624 82.6936 331.8 -102.319 3.07351 60.4031 -15.6834 76.0053 -186.158 -64.1067 23.2081 129.932 414.319 418.689 559.155 314.264 -410.332 -4.15681 10.4794 43.0309 29.3068 20.0947 3.15266 23.583 272.076 -45.1386 130.454 -90.2293 -118.054 -425.724 -144.578 -82.2451 275.403 282.153 -162.831 -49.7406 -133.88 -272.888 -55.84 -78.2736 151.713 -451.517 11.7068 -162.545 -126.322 -150.783 -286.572 -634.97 -278.099 -284.147 43.3836 124.612 655.206 232.01 493.657 -122.459 -238.356 -134.226 227.869 90.8064 -5.4135 -42.09 -174.011 153.327 -77.0785 246.136 300.95 -352.736 -474.638 -269.455 533.529 -48.9224 -1045.97 74.446 778.959 1402.76 951.124 -400.486 -186.683 -350.052 653.687 236.512 69.6085 -211.046 -932.829 -128.912 -18.1548 
44980 29978.2 -8264.25 1265.7 -8334.41 -4086.57 -7927.78 -8889.17 -4424.05 -3054.5 1711.29 -1283.41 -3477.39 -1595.77 1215.97 -435.833 -988.252 -1030.87 129.219 -280.779 -30.9704 -230.022 904.403 -2832.02 -521.162 409.319 477.268 123.789 1301.6 -400.468 1584.15 349.882 79.0454 331.401 865.423 -486.903 773.063 -1641.88 369.071 1679.09 1077.08 -1163.39 664.654 -44.7319 -226.701 86.8152 -933.918 906.345 -555.086 -344.851 948.126 -48.0787 -348.449 1534.86 66.6507 85.1565 624.916 -628.016 -392.309 235.138 -250.822 -432.366 -304.095 330.536 193.78 768.399 590.355 305.147 92.5685 767.045 -261.604 -674.266 42.4846 -1003.18 -686.9 -142.878 -617.455 810.037 -368.144 224.747 519.616 89.702 -82.0816 -338.1 -1286.2 447.389 -151.547 140.509 363.179 -367.384 -221.973 -129.673 405.572 87.7432 151.296 226.575 -475.715 150.652 580.458 -63.1929 -140.645 73.4715 462.252 -207.769 -36.8798 -19.4093 160.415 46.6524 -182.351 -0.603522 564.212 730.702 177.972 95.6977 204.894 -81.9434 19.1715 370.113 104.403 390.968 46.7194 362.892 -516.907 -72.2275 264.985 -156.344 -76.8345 447.643 -385.455 -117.238 79.4988 -280.502 -226.014 254.961 -762.474 94.2001 179.05 336.105 181.262 -10.4257 -347.983 70.4711 -297.199 439.465 -92.636 -334.13 2.78827 30.3421 -101.825 -101.612 -346.557 567.816 16.5214 -28.695 -162.896 -474.739 182.96 4.38957 369.532 193.56 79.7029 -157.99 -146.46 -109.796 -101.573 -21.4709 461.207 421.834 262.632 25.6319 -162.289 288.579 -410.04 -136.311 246.674 -405.451 374.642 -125.232 325.222 523.816 418.319 76.1475 -355.524 -360.842 279.229 -34.223 59.9113 271.875 -79.7157 465.124 411.96 -376.508 -184.309 -417.295 244.126 159.562 -390.824 -205.645 -151.252 189.378 136.356 119.596 -470.38 296.011 395.424 62.7922 2.18073 -340.531 314.464 36.3194 1.91014 225.289 -154.629 -343.424 201.254 153.754 -33.2661 -217.741 -6.16841 79.0486 -150 44.6151 20.3389 7.5911 35.3609 -0.0416199 -44.2868 -122.315 -182.276 -22.8899 -110.533 -27.6327 70.8795 -222.513 -81.0821 38.6635 -143.036 -133.823 133.202 -318.938 -71.3418 126.039 -171.673 -37.6658 140.738 141.536 82.457 -104.017 41.731 9.91002 12.6182 130.366 116.472 -142.856 111.253 -119.096 -214.788 -122.097 118.644 7.52287 107.563 119.865 164.605 139.869 -9.34058 52.3665 199.016 -110.662 45.3885 -58.3273 -18.8436 -92.6538 17.4936 -13.4308 -117.31 -5.75173 244.718 186.404 18.3119 26.5145 118.047 -49.0666 126.107 -36.2314 99.3531 154.271 94.3305 -244.375 41.7305 -79.338 222.429 -35.915 321.53 3.89342 38.4135 -180.064 -141.985 128.111 137.078 222.474 -443.517 94.7595 268.311 -3.57818 52.105 295.962 180.695 -301.953 102.125 -385.684 51.9829 545.608 -523.746 -408.715 681.564 -433.103 -162.756 -21.6137 207.531 477.512 684.524 -464.69 168.073 291.343 1899.05 -326.499 133.17 
45345.1 29753.3 -8637.76 2145.7 -7907.03 -2379.19 -7338.47 -8517.32 -3393.57 -2319.95 314.756 -2944.52 -3251.9 -1001.42 1254.48 -1886.81 -1626.59 -621.494 18.3825 -1266.55 282.811 -512.604 393.804 -1805.06 -1144.1 310.471 890.668 227.123 1374.38 -127.63 1601.07 777.175 -1064.34 -197.231 1488.76 871.843 468.041 -285.818 883.663 1284 1240.22 520.161 226.066 -506.427 -755.856 769.916 -769.947 621.363 -429.812 377.71 644.774 -116.468 -994.333 2274.8 890.114 160.635 651.342 -753.636 427.886 331.694 340.891 610.168 -28.8079 351.783 624.681 193.004 34.9947 -248.627 -411.162 -275.118 461.533 -296.909 -235.518 -461.743 -490.214 -646.528 -67.5428 -563.466 -749.854 165.48 -588.502 765.527 -918.794 -39.0997 -397.75 553.111 -371.701 827.405 1272.36 -150.071 275.162 -544.295 -334.107 -154.395 -735.358 17.5882 -1311.05 -627.179 -609.224 -137.716 6.13892 111.441 98.1303 -839.134 -299.178 165.46 539.091 -177.75 -179.083 193.005 87.063 -419.621 -119.597 -7.86877 -3.87516 673.085 -49.4849 196.534 -85.4814 -716.21 74.7479 -91.0462 279.046 185.494 -109.043 230.087 -335.611 -47.2033 52.5554 -247.701 -555.927 535.55 651.01 -39.721 1027.61 -433.612 -678.131 -365.574 -487.788 147.252 565.42 -31.3804 89.2969 -1141.56 501.573 702.863 83.9643 -347.55 301.475 747.436 650.563 -1191.47 -473.562 -324.655 -234.789 399.429 172.906 306.182 -433.243 -493.029 229.983 346.098 164.78 277.983 -317.948 -480.288 -1332.45 -546.105 -45.0841 -432.752 567.158 -491.382 528.374 -6.78207 -518.957 193.111 -734.23 230.121 -119.663 -1160.06 -830.513 -74.0405 855.608 374.765 -784.702 307.249 -76.7489 -91.4635 -1153.93 -1178.2 -1234.94 537.309 -59.9174 289.568 -508.705 -701.51 656.103 290.442 525.631 -789.026 103.531 -225.807 840.801 -536.814 -537.754 78.2148 208.702 1038.83 -237.519 -84.0426 -61.9252 -419.894 473.282 376.328 -231.489 -408.15 93.0441 479.201 12.4707 -0.0175287 63.9986 -75.3515 95.8565 -192.845 -313.288 -201.071 157.811 573.323 -135.677 211.614 -195.105 46.4814 290.206 399.833 42.9603 -112.269 166.3 512.736 -305.392 -142.462 365.536 232.024 279.687 -62.3608 -451.314 411.903 32.4029 2.04213 143.961 -13.2067 -167.045 -163.347 166.265 78.5195 -46.0297 73.8489 193.263 -29.5594 129.083 -178.844 -210.349 -42.1071 165.653 -353.611 -130.331 109.498 -171.494 -73.8015 177.921 192.815 -12.36 -6.6059 -152.092 98.2943 154.859 250.089 51.5004 421.694 40.9172 205.051 -377.632 537.578 134.574 -77.7555 103.67 72.8633 139.267 421.533 128.542 141.928 2.48416 -167.621 -88.5946 -60.4393 -233.898 70.8605 303.262 260.904 -40.735 -115.54 -367.827 81.0962 551.106 70.2435 -160.672 169.476 -23.5638 68.0896 322.94 -46.4941 -517.664 636.265 -112.613 -473.446 3.50094 -1069.08 -534.28 -124.346 126.785 -75.8772 -377.315 -50.9478 -113.692 11.0733 -36.0231 -172.361 -19.5465 
45150.7 29274.9 -8405.69 1923.84 -8842.66 -4868.96 -7299.77 -9048.69 -5091.47 -3599.25 1612.94 -450.124 -2913.19 -1657.92 281.271 -886.039 -118.101 -1328.49 -312.632 350.778 578.451 -32.7347 1032.75 -2747.44 63.8478 566.071 311.577 1104.66 1723.17 -288 1434.15 360.928 280.484 166.37 1086.99 -900.645 641.238 -2074.37 443.905 1853.88 1139.91 -1257.82 419.382 162.506 -36.0327 394.655 -1438 794.703 -175.757 -425.983 661.517 -292.38 -445.106 1555.42 -398.272 -118.271 866.102 -103.739 -536.667 277.88 -0.539365 -400.376 -185.431 497.26 -43.9132 817.597 614.134 404.4 364.144 1087.39 -442.927 -1254.18 311.19 -1309.59 -886.138 -179.023 -845.446 332.194 87.9471 573.133 808.788 62.0537 221.499 -362.405 -1266.71 720.41 -399.328 469.83 -64.0442 -411.62 7.87961 -363.834 80.737 -136.069 -329.192 281.502 -34.9343 505.76 584.793 21.1173 -601.948 -148.742 102.529 -378.901 166.623 244.445 -479.854 49.2641 -231.565 -35.5807 212.465 862.15 298.007 449.753 476.76 -208.224 -93.5441 428.92 -25.3018 452.142 -103.061 480.918 -623.869 -64.1576 819.746 -163.375 -86.454 694.667 -131.565 80.1227 295.529 -385.29 -414.376 -21.8255 -848.556 520.827 -139.721 364.914 248.253 119.44 -74.328 350.28 -37.4074 940.259 -122.195 -76.195 136.937 487.33 128.907 -233.657 -502.772 498.023 -40.6006 72.5314 48.3728 -688.797 120.362 326.9 569.866 299.079 -244.691 -30.7301 140.763 -115.889 225.562 189.07 887.085 680.663 49.3004 587.062 -174.145 218.907 -420.477 -206.915 335.837 -54.6343 643.28 -201.099 53.5479 654.349 418.428 -259.91 -486.8 -202.698 468.72 -469.03 194.002 163.285 554.865 487.408 723.458 -361.065 -187.708 -354.776 282.539 397.45 -376.373 -136.947 -290.009 417.608 203.028 126.429 -372.301 539.425 402.628 -71.7246 -328.317 -473.384 269.313 -19.1912 66.3706 244.604 -221.395 -94.6692 112.958 45.7374 37.4199 93.3006 -257 -192.598 -34.564 -39.5372 -144.993 -70.631 41.8635 -14.9886 -63.9984 -86.0938 -362.322 -196.265 -129.856 -125.141 -55.2759 -148.951 108.354 -183.49 -120.202 -343.434 24.914 -139.147 -499.562 183.585 -141.334 31.7489 185.237 29.1794 -13.5339 -411.183 5.50938 -101.086 249.344 138.332 23.349 -107.414 133.398 -35.7357 -131.997 14.5057 -35.0826 -7.85809 42.8117 120.861 121.372 -116.352 -57.8357 -168.522 71.9164 -90.4307 -68.3222 251.1 214.256 -58.9328 57.7939 -273.552 -23.7553 -136.999 -29.3083 167.791 73.7573 -0.559713 -80.0026 -161.106 -49.6765 72.6975 90.2542 143.892 -179.463 -71.3042 100.166 -276.04 39.726 82.6867 201.277 177.865 -165.282 -119.133 -56.4383 -159.236 17.081 -26.42 -105.45 -111.833 96.4489 85.1379 -78.1329 134.471 181.451 -93.889 237.646 51.2714 -355.344 303.897 628.18 -308.175 -202.633 -1336.71 -500.905 83.1939 296.976 -50.6787 -106.035 171.005 348.601 -135.146 -1475.66 585.013 -140.175 
45187.2 30065.2 -8422.72 2246.52 -8284.22 -3975.38 -7478.09 -8244.58 -4360.85 -2769.07 1815.26 -1160.26 -2441.01 -849.62 932.824 -1560.63 -255.146 -1450.16 -456.691 -595.55 885.716 -97.8373 -112.1 -2393.92 -175.572 213.381 281.444 802.907 2022.04 -738.799 1606.21 138.515 -510.255 631.036 662.518 -823.371 684.214 -1359.26 822.485 1442.92 1455.86 -256.871 -22.3721 -485.437 -360.861 90.8871 -1109.73 1213.67 -333.551 -165.356 647.664 -254.739 -372.351 1228.01 111.744 -323.844 660.103 -350.982 -336.793 580.663 -316.871 -8.43514 -222.794 -52.1003 300.44 374.03 496.334 488.095 -33.0796 465.196 157.704 -433.525 16.157 -893.581 -580.082 225.327 -565.249 -482.003 -477.246 576.646 321.311 539.658 -144.813 -189.275 -977.663 262.614 -534.1 800.224 912.512 -383.538 325.003 -103.841 -51.9256 57.7919 -155.41 165.155 -418.878 112.281 -154.355 512.017 -904.683 -291.145 229.14 -414.9 194.284 -67.8219 -211.456 76.6686 -87.4986 -195.204 392.802 711.823 99.5695 245.189 434.271 452.51 -367.488 414.51 179.471 134.407 130.738 -25.0439 -125.919 55.5703 -288.905 -50.4205 -271.049 115.524 -18.9028 -54.7386 187.083 171.623 213.598 -137.91 -186.94 -138.432 -85.1002 58.0522 -327.027 -373.812 499.981 351.892 -321.539 20.7519 210.199 69.4355 14.4482 51.9811 -149.331 151.866 322.063 96.3012 -189.797 -62.6278 21.067 238.203 47.8597 569.802 98.0879 337.918 -67.9403 -282.345 73.4382 -299.001 141.97 112.981 -104.458 -367.013 200.939 -23.4351 229.526 52.4081 266.175 204.185 -242.234 -170.008 -346.668 -109.64 -326.464 -341.914 -58.4616 159.462 -126.925 414.683 -550.759 259.873 136.681 -4.71739 -278.159 83.6109 -162.368 465.891 -2.3878 355.275 84.1803 -433.99 199.13 123.294 34.7913 -456.381 53.2629 -51.5452 255.867 -289.343 -269.895 -90.8793 -3.52111 388.888 -245.925 208.642 20.9506 -549.8 -82.2947 433.962 -133.605 -177.827 218.433 554.713 129.171 -50.1703 219.621 71.2799 135.762 55.8188 -79.3906 290.209 -62.2294 11.9596 266.398 249.32 277.015 -126.703 44.9916 243.675 27.4699 78.4942 429.284 -33.1378 -340.241 294.993 -68.9151 -207.64 -107.358 -242.622 -186.4 -53.7715 25.5817 -112.597 92.7688 -476.787 286.964 -67.2941 164.37 368.858 -2.97785 142.302 227.173 61.2899 -532.211 215.317 -169.432 86.1631 -134.247 62.3929 151.447 -83.6912 -210.224 370.51 -165.215 -209.003 326.714 -235.904 145.784 -139.864 -335.363 -358.129 -424.691 -620.3 -1.33682 -327.077 -8.39765 -719.721 -424.229 107.221 -292.609 -129.801 -273.752 -437.094 -329.945 -63.4375 -202.209 380.093 -505.489 23.1191 535.553 -268.447 -282.907 -484.617 52.4759 -33.4742 623.778 -75.5182 -1000.39 -99.86 228.345 -703.44 -327.97 303.172 64.6455 460.136 448.6 -1032.67 1162.91 671.623 -776.134 70.9493 -123.849 527.668 -172.146 359.653 -215.518 -149.713 78.299 133.68 654.624 219.57 50.8535 
45169.2 29471.4 -8908.91 1758.27 -8434.26 -4475.06 -8265.7 -8698.46 -3351.73 -2607.18 1123.73 -1034.67 -3456.05 -874.12 789.667 -2108.75 -321.419 -727.389 564.18 -1177.75 163.526 -108.152 536.477 -2362.19 737.491 282.322 801.274 1177.71 1317.8 -562.373 1578.79 661.367 -160.138 514.57 1034.32 -492.355 778.922 -1715.9 1170.77 2181.5 845.881 -497.643 520.113 -238.647 -28.9627 366.445 -1019.91 1175.04 -1065.35 24.5981 519.623 -77.1461 -838.69 2084.08 200.38 330.898 1233.67 -562.931 -364.288 405.554 275.648 -307.738 7.22559 731.518 785.777 638.008 813.246 101.473 219.753 185.854 -284.217 -917.498 188.541 -939.38 -767.654 289.327 -602.457 -146.258 -851.809 104.873 275.298 130.39 -259.328 222.52 -596.942 910.99 -237.807 266.214 433.738 -351.853 250.751 -269.338 -224.682 46.1509 -33.2848 301.072 -1248.12 153.959 3.54113 480.596 105.262 -170.699 962.811 -155.795 -108.749 -483.902 359.637 -255.201 -64.6731 197.502 512.792 847.95 -46.4507 247.839 491.889 -0.703501 -206.495 145.83 7.99083 609.178 294.775 -217.019 -396.648 -126.809 345.663 163.133 82.5652 745.016 180.742 -8.57682 177.273 -10.3947 -148.492 -185.955 -733.615 254.326 167.475 326.222 132.283 -124.973 -219.653 -9.53127 -146.598 -160.566 143.08 248.931 -93.0023 -42.2246 -246.999 19.8016 -292.829 184.928 166.983 -286.444 -22.217 -40.6298 -271.764 -537.498 -49.4959 138.9 408.158 -212.499 64.1695 -254.968 -76.1055 210.688 144.128 376.541 532.874 239.149 -42.3877 281.548 -787.108 293.682 -48.5353 -152.854 153.02 155.176 6.35802 140.783 -35.2461 263.874 -183.106 -6.13961 -41.4591 121.094 -132.007 73.4053 394.213 606.744 681.878 -275.138 122.534 183.316 315.084 -171.202 -72.9596 -149.306 -206.484 379.812 -278.041 134.758 -96.346 256.377 94.2471 225.679 -100.284 -687.041 -104.947 -428.06 -357.078 320.062 -549.771 -258.39 431.619 388.313 -263.63 -465.033 -180.607 70.8172 -351.071 206.88 -289.081 385.511 84.375 -225.385 405.263 11.8261 -4.44276 -48.538 -100.664 257.352 -101.564 -135.281 -11.3392 245.203 -66.2174 279.39 147.107 319.164 348.499 -339.441 -270.561 235.832 256.711 -320.04 -170.989 487.369 -106.014 549.143 -592.967 8.45205 -688.783 -540.72 -664.869 -189.605 277.675 2.74655 281.881 -344.598 298.231 -185.268 -197.553 -82.9123 -338.015 237.791 -36.4361 35.5634 72.4279 279.373 -99.203 360.988 -242.348 191.282 263.524 352.694 476.639 198.382 -52.9607 123.024 -30.2833 952.007 253.499 99.7645 84.7491 -77.1664 638.118 836.698 243.814 567.434 40.5841 -526.065 -615.225 -419.296 -530.317 633.362 422.672 453.723 -441.929 -162.243 243.496 52.0117 240.447 -219.984 68.676 -123.344 -284.588 257.894 -250.543 194.081 -198.199 -390.663 -143.669 377.339 -481.246 1153.3 293.313 -39.4727 -331.194 -290.945 -692.009 229.15 -480.85 -66.5125 -74.9761 -267.995 -19.1904 
46062.8 29116 -5415.27 5644.62 -12333.2 1450.2 -2936.37 -4504.68 1092.66 -382.586 516.437 -115.805 2783.36 -1805.86 -818.56 -843.808 1711.19 -811.862 -71.4339 -562.326 -556.18 -2007.8 -60.3158 2335.05 1349.97 -1163.61 -2401.12 -1669.59 -1970.33 191.001 -521.615 -392.243 -2408.71 624.293 -688.189 -992.47 -1264.35 243.46 276.569 -2237.19 615.608 424.146 -1396.18 -720.329 -33.3236 -971.6 1068.64 -1537.57 428.129 1292.92 826.759 -1767.14 714.902 -509.528 1201.63 1010 -1635.73 999.174 1352.53 775.864 -878.397 -981.357 -194.593 -1570.4 538.426 721.052 -1146.29 -1203.68 -761.15 -13.323 -37.9647 361.231 168.063 1480.82 881.97 -268.312 -799.741 518.788 -395.009 -1009.75 532.629 -454.737 280.685 96.7298 -367.307 -168.685 17.9016 -165.457 -201.351 144.219 -428.067 -553.892 -21.268 209.091 97.8842 -582.991 -422.784 -249.208 285.615 -131.036 119.448 -654.99 -161.849 242.017 -304.046 -24.6001 325.244 765.846 -98.5207 87.7233 -283.147 261.915 -660.765 128.259 302.448 -661.518 801.775 -161.538 40.1887 -8.96074 -325.634 -55.8123 204.005 649.361 22.7503 -280.038 106.898 307.612 -4.44011 -67.3093 -467.047 -198.848 -41.0506 -202.995 393.432 -590.847 -100.125 150.14 -144 -42.1082 196.674 395.357 169.94 -66.3756 10.7702 -13.4457 30.6943 184.604 -105.845 150.846 -8.97244 -71.43 -120.032 -403.173 -122.035 66.5784 -189.531 6.06025 91.7023 -178.298 193.946 287.957 41.0051 279.158 10.5906 -343.467 117.031 -40.8074 -240.582 19.7466 -106.455 -354.799 -38.3507 -128.183 214.372 88.764 -362.182 -285.8 28.3521 -20.7974 -17.4235 -303.826 103.577 -73.5153 106.906 38.0287 212.743 48.2917 -381.998 -411.777 -63.8652 124.124 -53.5639 166.705 -2.76335 143.949 -105.435 112.621 -24.6472 227.513 173.888 -52.1967 -280.536 -303.921 27.8736 -144.538 123.662 -6.1764 -216.36 223.942 -206.576 99.3284 -233.852 56.0235 -255.113 137.905 -161.521 -192.895 313.356 -148.264 159.726 -252.181 -97.8013 -7.58731 -158.08 130.46 -216.66 -61.6621 -174.938 -471.474 -296.32 97.6323 353.582 -328.531 -260.005 -129.928 -237.424 380.306 206.854 -174.619 -153.61 298.662 269.692 80.5172 165.18 9.72045 -489.925 -95.4743 -231.465 125.432 -38.4671 -167.66 187.909 -326.766 413.957 186.993 -163.657 414.187 637.935 107.457 -29.6795 139.516 67.7605 580.378 363.04 72.9875 91.538 -73.6699 -415.258 -393.134 -431.2 -302.133 5.59805 875.421 -8.6366 128.084 241.205 280.975 271.361 206.179 883.435 -124.52 305.035 183.909 419.98 -101.506 76.2515 -323.491 481.311 -770.556 424.772 280.339 1205.13 329.553 -803.026 553.847 846.25 -31.662 317.204 149.905 -275.233 508.512 949.424 -410.243 457.962 43.4755 -455.086 297.9 119.685 467.808 -6.40406 -484.043 504.593 380.258 -463.282 249.227 4.9994 553.638 72.6669 389.042 -29.9153 -215.01 449.598 -36.7702 -18.2582 -58.7962 -49.9525 
46023 29707.2 -4077.13 5605.86 -11690.9 -732.11 -2776.91 -3969.47 -816.955 -594.127 280.206 1592.94 3288.25 -1769.72 -1292.56 -307.403 2802.04 -218.11 -1117.11 86.3247 -583.526 -2489.72 -932.78 2419.51 902.654 -983.328 -2599.83 -1773 -1242.52 -170.742 -1429.07 -336.303 -1763.14 158.451 -1084.09 -1601.42 -873.947 104.97 873.876 -2185.97 998.828 -4.15711 -1467.26 -440.14 389.698 -1466.86 1114.83 -1420.95 1045.78 1052.08 479.917 -1699.68 922.692 -1913.96 464.069 658.096 -1244.01 537.778 876.182 449.352 -1036.06 -874.278 -355.117 -1809.19 1218.78 923.051 -864.932 -1264.61 -22.3214 -287.858 256.96 774.885 538.259 1655.34 203.467 -256.978 -503.818 78.1218 236.771 -753.477 316.543 -332.148 718.547 -108.566 -185.98 -186.56 -186.483 -131.636 13.4939 261.315 14.9824 -338.878 -199.289 -453.284 403.508 -722.704 -114.983 -361.459 -116.93 36.0518 -713.992 -301.823 -76.5202 69.7136 220.563 435.921 325.99 1272.16 -260.526 -364.447 264.511 670.172 -429.425 459.463 319.521 -487.674 406.94 -317.778 174.343 229.309 -310.376 -262.101 250.038 -230.375 -64.8814 -686.365 -0.0327772 385.007 -54.8884 169.391 247.906 -318.69 344.722 -95.4996 44.485 -119.298 -51.2542 315.826 115.407 -48.1432 71.1363 240.2 51.4542 42.4819 -61.856 -1.43044 12.862 154.759 -364.636 42.7793 -220.44 -206.283 -130.398 -3.31552 -491.676 111.682 -2.87757 160.582 -185.884 -7.94174 167.583 259.742 -138.977 -125.606 80.625 1.36591 213.946 187.579 190.216 34.5204 -145.255 74.0079 5.17458 114.117 367.102 -1.06696 -355.686 -253.799 205.277 46.7477 308.383 235.123 -372.026 -276.862 302.696 58.7834 120.307 290.688 263.728 91.9263 49.6027 188.071 -99.1676 -127.1 35.8435 283.472 -43.5858 -9.98725 65.3527 -421.172 258.822 162.503 -12.7576 -374.844 197.447 -122.675 -63.4349 58.1394 197.571 26.7927 54.3311 -168.824 116.445 -294.711 308.989 -176.564 383.872 98.2999 -46.1902 214.182 -85.4063 -230.492 -104.668 -352.558 -140.297 -180.722 27.4361 243.804 -110.603 108.757 21.2967 99.7504 -234.627 -208.083 -473.557 -343.774 26.0741 -275.851 -292.483 184.58 -72.2045 152.826 -141.227 -217.094 -82.2908 260.478 281.551 -374.73 30.8992 -362.665 321.363 -142.256 549.273 600.748 378.083 -179.82 381.806 78.5235 -405.062 169.447 -763.667 -105.775 -307.909 -229.029 -20.3659 -28.3986 -307.7 -284.319 492.762 141.101 226.468 945.01 147.194 -716.929 182.645 354.971 -268.231 -216.474 -382.389 66.8895 -10.0267 495.298 -27.5109 92.0343 31.2361 86.5772 -103.602 485.723 -122.755 289.039 0.544391 -347.792 -964.353 -306.829 346.601 -30.7225 -178.14 72.0161 -267.765 222.883 170.719 -221.791 -390.519 255.145 -133.263 -25.9225 162.414 -180.032 -158.915 -615.548 -87.4395 642.968 -405.038 -495.604 291.398 710.741 -308.19 809.483 -332.802 843.203 -637.805 -385.064 636.198 -36.5628 -268.538 -127.172 -20.4915 
46117.6 28767.1 -5105.03 5931.58 -12532.4 -153.691 -2796.81 -4436.27 -415.116 -876.84 480.692 1625.15 3406.44 -1999.06 -1752.3 -683.825 3084.94 -834.083 -927.286 144.58 165.198 -2634.19 -608.587 2424.85 1214.99 -1355.63 -2690.79 -1184.94 -913.533 -112.335 -1227 -449.27 -1440.02 339.28 -887.863 -1373.78 -766.15 -15.849 788.252 -2417.56 1041.5 229.207 -1764.57 -381.626 330.199 -1294.72 748.972 -1731.39 1205.96 1078.97 346.609 -1968.34 997.914 -1268.68 754.384 527.286 -1407.39 525.934 1136.19 658.62 -986.872 -881.515 -424.474 -2056.22 1064.72 1014.93 -1254.66 -1106.15 -208.167 98.4698 -133.12 601.899 416.067 1676.31 11.641 -122.455 -307.329 236.193 130.2 -449.422 698.093 -170.885 788.261 -335.9 -79.017 -37.2127 -300.499 -79.7277 -121.921 256.435 -31.8737 -189.614 -303.483 -328.792 356.604 -699.971 102.675 -191.594 417.44 161.001 -817.38 -668.839 -113.242 -17.9859 151.267 351.728 -3.74175 1125.53 -354.226 -248.206 123.064 402.236 -512.653 599.795 299.694 -684.119 227.684 -329.778 441.818 63.6449 -256.69 62.1653 127.702 -56.6189 276.203 -398.151 202.655 257.784 -0.102801 -41.824 55.5923 -212.334 140.768 -77.3035 302.982 -15.4615 -263.823 292.632 280.022 -52.7438 10.9269 344.338 228.782 74.3884 -187.302 165.614 117.269 314.309 -241.86 12.1821 -208.949 8.36616 -261.953 -156.255 -465.891 39.9464 -126.58 232.18 -61.024 66.6072 155.464 128.002 -160.822 -20.6611 -106.879 223.713 115.323 -34.4939 148.091 126.628 25.9216 -86.0403 -54.2592 90.2117 156.776 -140.721 -414.887 -474.527 -167.938 -4.6488 162.391 121.875 39.9627 -114.592 144.582 -38.3288 259.542 40.2985 328.967 252.044 124.255 39.1525 -303.76 138.965 139.712 231.143 -77.5476 -247.273 -125.048 -117.833 158.447 -0.144345 -74.7792 -55.9012 133.436 -39.227 -14.3497 226.094 319.587 278.552 4.30438 -108.007 121.924 -192.026 12.9428 60.2818 373.577 -8.51833 91.7563 58.1821 307.19 -143.567 -14.2386 -338.456 -154.402 -139.418 -145.563 47.4005 -144.562 26.7494 -113.633 -302.977 -318.512 30.8396 -138.378 -303.061 200.244 91.9248 -233.991 171.843 -167.85 -28.5536 -123.762 -300.97 -19.203 268.059 131.572 -126.326 53.5271 -75.1262 363.283 145.715 119.1 319.534 308.869 -219.606 202.65 -26.2031 -123.558 85.0806 -310.937 215.458 -93.7169 -48.9981 104.992 -120.204 -15.9364 -204.394 136.192 -14.7554 13.4481 447.535 264.507 -373.514 154.84 398.133 -117.159 195.25 -42.0032 248.163 -4.4251 461.678 -114.562 159.777 116.41 220.845 3.30392 156.212 -320.56 -42.3808 -65.6813 -332.7 -344.884 -88.3128 157.621 -81.5361 -279.789 274.704 -75.3226 -434.693 -36.6006 22.6587 -118.798 125.246 -64.2584 5.45077 -135.852 -65.8023 13.769 366.753 146.684 -405.781 101.828 415.394 -125.378 -678.255 369.865 -1330.76 270.012 -1223.77 709.038 572.754 -1059.8 63.1782 320.631 150.839 71.1755 
46260.3 29037.5 -5039.55 6433.56 -11468.5 1075.21 -2818.67 -3448.95 1185.03 -607.368 15.8667 1075.6 3148.16 -1601.02 -835.234 -1778.07 2164.86 -1379.4 128.21 -1684.94 -71.0515 -2504.42 -760.918 2956.21 1544.56 -1141.4 -2583.94 -723.142 -708.172 -235.215 -725.252 -558.716 -1907.5 774.536 -718.536 -799.231 -914.185 -278.984 1545.75 -1895.82 1201.71 934.672 -1872.2 -840.599 -269.467 -1042.32 1234.52 -1415.03 1174.19 1412.31 370.568 -1965.68 960.473 -1253.93 1154.38 1241.19 -1243.52 613.32 1529.83 761.192 -890.645 -856.793 -481.131 -1604.16 1236.38 1063.1 -1172.53 -1109.92 -556.212 -575.325 162.637 569.089 752.848 1648.82 839.293 -59.0446 -287.371 436.048 -329.881 -865.806 267.061 -505.744 340.176 323.308 18.3915 -41.5549 -39.214 -183.065 36.0436 238.963 -303.482 72.2517 -558.924 -211.323 398.768 -698.53 -63.281 -188.453 -281.275 146.05 -635.961 -651.616 122.776 -132.311 58.1615 -48.645 360.101 766.758 -118.478 37.3571 215.585 111.599 -899.674 58.5358 701.547 -570.534 -111.508 -230.235 165.61 -339.944 -343.667 -274.227 309.86 393.381 -410.244 -361.642 350.972 132.326 48.0179 221.206 153.76 306.167 -76.2393 -262.146 445.985 -149.976 314.538 61.5248 49.487 -66.0223 -282.28 -175.857 -122.116 -388.368 -176.307 290.577 -387.941 -363.43 -374.283 154.75 29.8802 651.579 -34.921 -91.9885 387.326 44.7855 -928.055 -447.714 318.937 210.616 396.428 -260.174 -101.268 -77.9248 -67.4727 -17.3134 -127.32 229.101 -75.4706 62.3074 -13.3312 181.475 159.163 260.328 -292.12 -305.998 -47.8101 67.2326 -335.012 -342.263 18.6812 136.237 378.193 68.4446 -253.708 39.9396 -432.372 34.5394 -164.488 -102.45 22.7418 37.0104 225.258 345.63 221.131 -374.416 -183.3 -158.963 38.365 195.886 -395.051 -147.165 27.7159 645.923 -342.937 -11.594 31.3905 -41.4494 -280.102 -673.671 -24.1662 261.978 -207.607 65.471 -124.85 197.605 -402.52 190.699 -310.577 -179.885 -431.767 198.617 181.279 896.288 217.097 125.433 282.146 -291.541 5.97494 328.746 183.53 -22.8459 349.762 325.799 672.945 787.28 -51.8367 -136.752 444.147 -30.7252 252.903 -361.79 72.6786 445.033 15.2491 -564.564 -151.218 627.57 380.012 264.489 -860.78 -32.7141 -1008.98 -804.616 -930.315 265.681 -499.057 -520.851 -106.102 -425.376 1019.63 -264.288 303.9 -271.365 -357.855 61.5708 217.669 482.026 -344.934 359.763 128.632 -947.845 -383.916 352.801 -233.482 -829.294 139.22 -229.28 202.788 -534.611 -977.886 -776.807 -50.1505 -510.103 -451.678 -287.145 41.4233 -263.733 -16.4233 437.589 -201.389 392.916 175.785 30.1963 218.143 -471.61 -361.087 -280.894 36.592 -43.7886 100.931 -367.878 -290.77 30.5184 -242.856 117.83 466.684 -40.353 37.1845 -216.15 1.21279 254.254 -228.112 -280.007 316.214 -234.99 -128.452 -64.6211 -47.2205 63.0994 -116.519 55.8252 19.5327 -33.3178 -102.898 62.0925 -9.98113 
50609.1 9706.43 -5621 10511.2 5906.39 2945.6 -5523.12 3709.19 4439.79 1565.21 -3697.49 -1869.77 2289.17 2505.8 1299.87 -1150.65 -5553.73 -1589.36 471.232 1748.69 4218.32 2896.23 -2223.08 4786.16 1628.55 -2371.82 -1320.45 940.261 1126.49 -3145.55 3635.79 2173.99 511.494 1159.29 -415.606 415.224 280.78 -502.37 -1959.41 1643.03 -1735.21 -709.376 -2907.67 -579.197 2100.65 2529.54 2865.17 -559.612 350.532 -1799.22 569.195 401.195 1845.74 510.555 -954.11 -588.371 241.566 1644.07 576.71 -987.439 636.791 1406.92 -1446.17 -452.335 303.495 516.352 72.4368 497.942 -305.028 -38.4345 397.706 178.022 510.171 -92.6393 417.763 1479.06 290.394 -242.883 272.369 337.239 622.02 284.955 -1021.17 825.191 -601.238 1729.99 130.961 1613.44 -1392.86 -472.146 1846.42 -149.597 -222.588 816.587 -692.9 712.326 920.347 22.607 -441.101 285.973 -323.619 506.812 -142.427 1172.07 -360.559 -906.113 -197.002 -83.4636 1146.45 185.137 2883.7 963.457 -1417.21 -483.212 453.924 1161.71 86.5342 230.993 -41.4332 341.825 -3324.21 -254.576 -830.07 86.0245 458.657 245.837 -940.062 975.91 2143.8 -184.439 70.2084 -1958.18 -660.596 -408.098 1392.79 -731.623 -1209.28 -1139.72 -861.098 -485.137 1135.35 -1385.23 -133.665 29.2965 -1079.1 843.704 -173.133 -630.032 -687.755 -876.84 -697.506 -897.158 1266.05 359.146 -245.679 216.797 -4.32594 -232.027 -329.067 487.414 542.508 -908.903 158.452 288.438 -93.6868 -468.326 -439.877 84.9262 48.6308 308.134 351.907 -655.907 -299.021 -65.0261 328.605 265.355 517.118 494.255 499.36 60.6007 186.207 191.728 47.8693 -119.478 186.102 -207.82 475.358 -258.1 209.911 -318.999 62.5558 208.544 -105.333 251.675 188.247 194.42 -618.712 -254.439 -384.899 -20.471 -17.9859 109.387 -25.8721 97.3857 -247.087 -47.0697 90.1762 312.832 32.3663 -195.157 -60.2284 -116.6 168.473 -50.2206 164.769 233.686 159.915 93.4574 31.4524 -199.921 -202.718 13.8085 -94.2659 -283.06 188.741 159.624 35.2415 -12.5621 8.43894 -105.06 102.33 75.309 -44.823 -254.371 -190.911 -121.262 -230.405 -170.368 15.9583 -156.679 1.57189 193.776 251.122 -62.4712 13.3262 -107.146 19.379 84.0122 -106.136 -81.8578 58.46 212.567 129.244 -103.218 79.5994 277.733 8.21515 -156.457 21.6413 -27.3034 -163.409 -4.72937 136.407 -121.587 -36.9451 -60.0677 156.874 -13.9079 -121.068 -5.82625 133.365 68.447 26.2805 -14.3638 28.6335 98.4971 -1.23783 37.2054 -40.3443 -54.6677 -38.8894 -109.567 -95.6537 26.3835 150.065 -92.2302 98.1252 42.7926 23.8058 9.1407 -22.8954 -9.75874 27.4118 15.0658 88.4603 -58.2689 13.2347 34.7073 17.4771 -126.714 3.16001 -14.8357 -42.7991 -1.68481 -54.6368 -31.494 -10.6125 40.319 69.5731 -2.44745 -15.8781 7.13216 -35.5745 -5.79052 0.605408 -16.5138 35.5131 -21.18 -17.323 20.9051 56.8152 -25.9074 -1.2022 0.315249 45.505 -25.9812 -30.7789 
50796.1 10683.4 -3745.46 12857.5 3636.55 3546.82 -4814.17 638.45 5995.72 2105.24 -2660.96 -2096.36 3085.8 2033.09 1167.31 -1627.79 -5540.83 -1185.75 2350.08 2989.45 2478.42 3516.01 -1604.52 4395.69 763.259 -1622.81 -1710.63 1407.86 821.805 -2527.24 4346.48 1781.8 289.046 1175.25 -741.242 2675.3 410.045 -141.059 -1796.57 1585.67 -3531.89 -508.602 -3271.15 -434.652 1631.75 1401.34 3278.2 217.04 175.269 -1545.12 1184.72 606.518 2099.8 1379.01 -1421.55 -1722 -1005.93 464.044 566.947 -860.519 499.568 1211.19 -836.612 1597.88 1892.45 514.764 2286.62 -346.967 -52.0031 515.408 -516.937 -198.674 550.012 50.2594 451.575 -908.564 244.495 -293.19 -12.3018 -906.801 437.364 -855.895 829.816 -574.408 523.747 -145.572 893.802 -1025.07 365.935 485.217 -589.578 436.309 904.174 -1303.16 886.373 115.338 -862.471 -412.826 31.5579 -455.063 -453.348 -463.154 638.044 -1067.4 106.73 697.502 132.427 418.979 -547.682 -241.195 -724.768 -787.478 972.639 163.398 -214.503 -334.129 -192.666 218.437 -31.8407 -499.381 1194.54 -445.244 653.45 -45.8625 -25.8197 144.65 300.356 238.89 -586.57 322.921 245.24 1037.56 -51.7619 105.123 -859.169 39.2922 620.859 679.244 323.651 193.02 -837.816 1096.9 7.73202 -350.035 479.208 -466.802 -257.505 80.745 44.0556 102.677 248.767 472.656 -966.252 -87.479 428.851 49.1491 1.9267 229.831 163.087 -531.019 27.2833 386.881 -18.4785 -42.6635 -606.235 261.303 284.64 226.282 -208.309 -294.26 14.8701 92.1455 144.163 -2.60975 173.996 362.998 -200.18 -218.044 63.8241 81.4194 48.6046 -22.8245 -451.498 99.4479 81.2131 235.6 -141.216 -267.88 -289.838 234.911 4.51974 103.929 385.709 280.995 -209.237 474.037 -279.615 -220.421 67.4287 -379.879 -397.329 -127.479 -113.571 130.855 -7.27553 175.614 -168.561 -615.279 320.07 134.691 233.524 219.599 -562.333 51.4493 -242.841 19.5227 -242.864 -243.157 376.126 206.989 226.132 -157.499 -158.347 -393.215 -440.241 557.429 -569.685 514.06 448.41 -282.931 -702.987 -310.406 274.915 -188.22 24.2802 -35.0845 -94.3214 207.599 -113.839 -660.598 160.525 -222.404 -59.3556 -22.2125 12.3632 -543.016 -65.6333 269.801 42.2787 -81.5159 -528.694 115.773 233.392 136.388 -287.271 978.683 149.755 -123.539 194.154 771.149 -390.219 577.036 125.262 -736.821 -112.591 -101.915 -651.3 395.692 -585.399 345.133 -370.286 525.197 -321.465 560.561 249.786 439.417 -142.679 -359.061 -340.447 520.506 -472.883 -602.555 -195.246 335.106 -77.6967 -20.4757 208.006 38.4161 -318.453 -256.355 -200.048 99.3844 -281.815 -58.9041 9.53352 152.551 95.6216 310.5 -135.221 -256.253 206.509 53.3409 37.1318 -193.65 -114.624 -80.3858 6.13258 -236.333 1.67774 47.3651 0.141549 214.93 -28.6676 -10.9355 -143.057 -205.013 87.5147 38.9465 -56.8577 21.3478 101.952 -38.9712 82.8201 -34.332 22.6084 16.2613 17.4975 
50956.8 9392.87 -4213.68 12607.5 3868.83 3737.72 -5310.6 1563.33 5937.18 2246.26 -2541.79 -1502.03 3119.85 1795.52 998.254 -832.765 -4684.48 -1665.85 2055.35 2579.58 3070.87 3117.07 -1365.92 4766.09 476.913 -1637.41 -1493.11 1187.54 980.357 -2512.95 5046.84 1801.96 778.139 1477 -562.144 1949.02 872.927 215.162 -2306.97 1415.87 -3437.33 -746.876 -3242.75 -595.718 1938.58 1837.66 2411.33 -229.264 808.493 -1801.42 1630.21 796.515 2371.42 1107.47 -997.135 -976.803 -971.272 391.736 902.342 -1087.59 221.097 1328.72 -1011.45 1056.71 1773.81 471.851 1946.78 -794.451 333.687 709.197 -505.239 -58.2657 745.464 -58.1086 -168.455 -291.824 60.3721 516.28 -20.7764 -729.785 -5.12818 -1070.84 394.222 -619.428 -228.369 402.76 474.738 -510.552 181.154 20.9396 -158.099 -69.2325 679.27 -1530.11 961.273 -215.932 -269.591 -24.3257 -78.8345 -617.428 -744.585 -266.697 974.911 -760.681 183.044 312.643 -285.96 754.375 -433.778 -2.10637 -1084.63 -401.148 559.776 433.272 -67.4918 -580.763 -52.8968 151.83 -583.806 -178.244 936.584 94.7085 200.826 -187.566 -4.33641 92.983 268 -165.454 -108.66 474.686 603.547 816.694 105.806 519.114 -428.326 421.107 252.124 315.864 45.8488 79.8761 -491.391 -222.793 -87.135 76.5335 642.072 -464.568 -291.187 117.905 35.0065 779.854 213.074 211.197 -490.202 -131.975 5.69104 -128.765 356.039 96.93 -118.739 -446.638 -283.514 562.705 -407.646 2.28214 111.34 -234.68 31.19 -158.173 -204.491 278.206 -306.669 484.834 -102.473 -168.026 -69.6798 -450.218 -277.48 -212.218 -195.462 -241.333 -236.511 -125.881 271.066 165.963 -50.2486 19.5907 -286.26 446.348 369.122 317.292 -213.619 -215.085 -295.066 -142.211 -37.8473 -838.63 610.432 207.246 131.733 442.908 335.284 71.5731 252.439 -248.929 100.453 36.1499 335.067 468.849 -174.298 110.602 -463.164 -4.90715 319.423 -11.1563 11.3395 -187.528 20.9073 253.675 -326.246 19.5258 -231.758 389.242 255.733 694.687 237.118 -615.558 536.696 -700.472 -529.23 341.469 584.55 336.374 -131.556 306.366 7.66448 -20.3126 188.302 -13.2883 -188.903 907.265 -210.824 177.583 -116.07 3.73011 -3.11234 723.027 -66.8755 -304.096 -173.033 -10.3901 601.664 -255.244 -305.246 85.4289 332.85 -1135.39 -14.8953 135.788 -230.434 -683.246 474.638 -476.21 -236.887 822.658 25.1833 57.1503 598.644 -273.231 767.972 -427.162 235.761 -523.997 353.118 -530.966 -234.631 -404.766 124.531 367.761 421.066 -508.261 553.716 545.994 144.23 -304.429 60.8404 138.734 -293.356 -15.1129 282.826 248.771 175.936 -96.4475 269.271 24.3175 -72.6991 -112.532 -55.0716 -339.636 134.085 309.851 -187.491 -51.1373 -49.9584 166.832 172.713 71.8054 23.1504 230.361 24.4452 -33.517 8.3382 -155.878 78.1656 -12.1558 104.387 153.471 -119.866 -35.6811 65.0205 -8.49212 -112.371 51.1636 -93.9256 -5.13753 -48.9589 -35.8494 2.63195 
49915.8 3363.75 -11226.5 4676.15 7610.94 517.992 -3990.94 767.702 5852.13 2061.28 347.848 -3250.68 380.434 4554.34 -2436.15 4586.04 168.882 -4596.85 -1458.66 -3502.25 2589.57 -2209.21 -2585.53 32.7651 -2140.44 1949.28 -1784.31 12.4356 1602.88 -314.1 1945.02 -1058.6 -2077.36 -756.122 -1116.43 -509.819 -80.7833 2248.67 -893.423 -771.214 -605.484 -542.948 679.603 643.477 1157.4 1539.85 -1573.75 -648.764 -762.555 -1708.43 -1596.74 321.044 -53.5356 916.615 1188.25 -412.11 2560.88 -456.676 528.03 401.193 988.017 -1906.8 18.1753 -1614.51 524.279 -941.024 -111.568 351.879 877.834 228.294 590.127 275.481 -790.491 308.791 -390.546 724.505 -741.424 284.993 1009.34 -345.656 280.663 396.333 -524.246 1662.22 -697.76 -162.689 431.706 -219.28 -70.9876 -627.222 1478.73 -1728.06 -616.219 154.211 -707.1 -92.3364 966.508 501.38 -1181.59 584.852 501.626 51.0291 -1245.25 -637.046 374.343 -352.368 -1672.9 493.984 115.773 200.584 -455.481 469.579 -662.532 629.137 692.872 -694.843 842.766 -322.47 62.7696 573.945 -246.762 424.609 -174.687 1169.13 -400.026 104.517 509.908 -289.363 1697.45 28.3452 -542.408 257.005 295.094 -168.011 985.474 347.619 -321.82 1043.79 584.869 704.092 44.5977 481.37 649.029 -656.548 492.697 -196.953 1228.71 707.719 126.045 93.036 1167.2 1232.29 17.2809 16.7132 -250.109 586.746 -269.165 -261.64 270.918 -645.509 53.3867 141.936 1056.84 -188.211 -681.333 -196.309 -856.848 -456.336 -162.821 200.761 338.443 764.915 5.22901 149.241 -58.6865 122.63 704.33 51.696 -1277.79 941.243 158.953 -98.4499 -669.746 -458.835 519.049 -951.496 657.787 716.593 -132.01 264.041 215.409 -231.448 -161.814 -902.739 -262.938 430.641 1336.02 -261.098 977.255 432.269 -685.263 368.725 530.522 -1109 78.1834 292.562 328.314 -557.286 430.885 -167.655 -43.8544 324.864 -810.813 -25.043 -100.497 -209.235 -233.087 50.1955 -37.7534 148.438 -282.148 -274.799 -162.955 568.306 198.765 -328.454 -948.487 -0.509335 681.569 -485.061 -169.858 133.611 -35.5937 418.567 137.362 115.909 -1.37507 400.822 -394.708 -444.857 236.464 418.079 240.503 499.429 -275.089 239.5 -135.981 213.763 125.56 232.158 -240.043 169.593 -153.715 498.601 -190.971 -408.356 -124.842 299.994 13.3805 -66.4561 -63.6315 75.8551 -75.7743 37.9231 94.599 7.41199 -5.43137 318.523 -74.09 -102.255 6.22738 -100.003 -185.105 -60.519 -77.8687 204.535 -95.5254 -65.5498 85.1672 -34.6584 96.839 -109.181 14.4636 -57.7671 94.5064 181.049 -234.08 -225.867 -41.607 57.6933 -0.865099 -119.78 -279.181 -92.9375 34.2601 -65.88 -115.038 2.10303 14.5338 -22.541 -54.9185 -38.016 -28.8638 -95.0843 -84.627 6.37625 -66.3982 -70.7443 -128.849 65.3783 -95.0633 110.229 -0.737302 53.1708 78.7386 -53.0393 41.5848 -15.3828 -23.8335 57.3694 -0.467656 -35.7371 15.5141 15.3625 33.4289 -5.43399 10.0868 
50578.5 5075.22 -3882.87 4327.63 8664.34 191.929 -5000.84 -155.244 8568.7 4932.12 1363.89 -2504.32 1133.99 3014.63 -1634.15 5304 2076.86 -3498.02 -3000.4 -3338.85 55.3017 -1894.94 -3381.59 -1180.1 173.856 2786.94 -2113.87 1816.18 1168.47 1172.3 1200.25 -1430.89 -2781.52 -721.69 -708.833 -860.949 -1849.06 2750.53 -140.442 -1265.96 -208.811 -82.3566 1141.03 -100.99 377.957 261.475 135.511 -1323.82 -1256.69 -2387.12 -1140.83 1333.16 -1192.73 139.564 149.094 1088.8 2374.03 -87.8671 -282.767 301.397 1131.41 -1116.35 -299.858 -641.104 507.63 772.329 -212.349 681.699 1740.48 587.239 740.006 -357.587 208.333 623.869 322.062 -231.825 -809.596 926.511 -209.951 -498.175 255.885 72.177 -155.741 -1127.2 491.003 -272.012 613.782 -421.401 40.4354 807.062 120.198 -590.43 201.349 -664.253 -456.049 -532.245 -352.668 -420.3 -567.487 9.54774 849.282 -501.226 598.461 -224.463 524.244 550.18 811.794 -670.293 -35.707 -367.072 125.059 71.2214 401.415 -436.558 279.925 47.1281 -415.407 117.339 76.1979 -294.338 356.125 188.501 -295.583 -89.1297 67.4148 273.84 -283.214 267.528 -737.408 -161.204 182.948 276.093 -336.859 -52.5808 -543.988 -324.819 -425.77 -749.861 -6.8334 -356.378 391.654 71.1986 182.29 77.2917 -166.5 177.573 -517.415 4.48059 161.989 -78.1032 -197.348 -413.567 20.3232 -72.6236 -46.6696 -158.883 -133.133 -262.756 69.6146 -378.968 250.618 -562.907 -388.411 -164.009 55.954 234.223 692.174 332.217 -309.094 -149.308 -123.893 -384.988 -405.559 178.016 -294.401 -81.2347 123.505 235.11 529.403 -213.884 93.814 -406.68 754.2 -284.878 -305.881 580.931 -366.053 -281.791 -160.798 41.1958 -56.3501 11.9032 -27.6729 189.613 -249.498 90.4644 -339.581 134.442 -477.963 -245.48 4.11001 -451.18 -120.457 429.93 -74.4249 249.757 -143.686 283.745 -783.666 -31.8662 0.905798 184.584 187.612 -61.4499 173.979 423.617 -171.968 -89.7165 -38.0073 22.9252 186.476 10.6847 148.626 -451.675 -113.884 -220.244 -144.88 493.413 -121.672 492.824 236.826 208.985 146.644 -403.324 178.707 -412.622 -268.276 474.845 -442.556 -44.2724 -599.274 100.262 -232.577 17.3493 395.256 621.216 -754.163 77.2207 -207.982 -33.5907 216.359 -278.017 -451.453 -201.88 -67.1953 194.199 82.5578 86.913 -184.366 -326.186 -286.761 178.032 -54.1531 66.5113 65.7588 508.018 -105.288 91.3598 -352.346 473.57 246.577 123.407 -394.13 -468.346 416.647 -68.1521 190.414 767.309 449.041 94.9526 366.59 434.112 193.561 387.913 -239.677 181.699 -207.853 -611.219 -76.884 227.992 124.292 477.012 466.059 323.546 -214.738 -126.061 382.037 24.1199 -8.53011 -88.7392 719.086 -139.165 -812.583 428.009 -535.403 108.093 73.8332 -744.592 189.482 -577.047 -485.001 150.996 -63.5551 722.761 -237.349 -270.071 554.186 28.2429 -467.386 128.192 43.4431 -179.065 8.08172 59.1458 38.1958 6.12918 -22.6703 
50746 4892.15 -3250.45 4676.23 8540.61 -1265.71 -5082.16 -564.06 8220.66 4751.18 2782.94 -861.769 1980.86 3839.91 -2007.96 4546.82 2606.63 -4210.97 -2958.97 -3459.44 616.868 -1233.29 -4043.97 -1968.13 90.805 3212.69 -2611.2 2107.75 1180.62 928.78 1423.9 -1295.29 -2319.03 -328.81 -1188.8 -375.301 -1627.59 2600.43 -36.7646 -1398.45 187.465 459.835 1238.24 -114.852 111.611 435.121 -286.088 -1211.22 -724.372 -1926.13 -718.554 703.316 -862.833 -102.315 78.5702 218.094 2261.3 20.3286 -423.429 440.273 769.392 -862.008 -203.71 -411.092 427.199 490.384 421.63 794.973 1834.94 469.471 703.996 -146.626 929.614 1021.29 211.833 -732.124 -371.778 1227.99 204.29 -174.748 -123.903 -446.035 -377.723 -729.483 124.935 173.52 -114.797 -481.519 376.342 428.257 393.448 -305.826 152.854 -140.394 -234.4 -570.313 -81.3963 975.984 -366.584 -160.292 636.509 -217.72 298.937 413.714 584.702 716.022 784.018 -341.639 115.309 -132.903 770.428 158.261 563.581 -167.662 422.216 352.801 -436.657 234.02 265.742 -28.4292 367.88 -59.9219 -500.863 -606.582 -384.784 399.043 -459.939 -53.4736 -123.676 75.7487 695.251 457.61 -42.0804 179.165 -510.875 130.348 -131.751 -169.861 -83.9242 -732.736 -14.5698 -178.571 -287.133 183.63 -256.972 402.007 -616.23 304.149 -132.21 118.109 92.5276 -642.153 -77.1393 -240.615 22.6794 -17.2544 42.2869 -413.078 493.817 53.3147 246.231 -406.281 -759.843 -79.8806 -253.811 169.372 844.926 257.43 -433.556 -130.875 384.471 -39.106 165.443 -27.7531 -22.0139 -283.906 182.709 193.856 299.579 -146.68 -124.906 -75.0105 -126.942 157.597 -160.781 855.92 -308.943 -198.724 72.5509 15.0808 321.547 140.275 198.602 330.744 -403.015 34.0333 -520.504 339.736 -546.677 -113.154 -50.631 -238.365 -266.07 19.2513 -254.043 -174.733 -393.78 81.5177 -557.36 129.761 139.842 -34.467 -207.463 -187.588 -30.4377 483.029 42.4477 -481.64 85.0941 -583.108 -41.8035 32.2658 267.775 -403.409 360.131 115.389 594.93 70.7919 420.905 318.23 120.175 -326.118 -565.451 54.5078 127.032 406.409 156.816 -169.421 -355.824 571.398 -223.007 -81.665 166.197 -220.093 -87.8282 -123.06 -297.675 206.713 505.641 75.87 195.743 -362.824 400.318 -91.8817 -212.149 148.471 -336.337 -92.4484 66.6583 226.023 -269.932 85.4616 -458.125 -54.273 590.76 -74.7549 -111.111 179.49 -15.1497 -731.664 -337.229 -149.858 -18.1709 92.8465 -469.168 191.642 -41.9334 -560.191 129.871 -38.6998 -236.736 185.207 5.14779 166.317 -458.961 -20.1856 -168.215 169.857 -175.233 -121.985 149.174 -145.409 -369.308 86.6283 383.394 -67.9668 -352.748 308.971 -2.81882 -136.892 -618.159 146.033 905.775 -337.911 539.416 -214.423 -56.1476 846.089 -391.124 564.666 367.362 -126.176 169.633 -985.339 455.364 243.307 -741.676 -44.8906 364.854 -109.881 53.4258 171.269 -45.5716 -114.763 -94.8892 -17.2722 58.0661 
50798.2 3356.24 -6299.9 4972.41 8051.01 1013.45 -5301.59 -488.164 8521.71 4912.88 1797.62 -2953.6 1062.97 3070.7 -1514.98 5335.16 899.917 -3446.99 -2751.37 -3032.91 6.90011 -1698.55 -3135.72 -1329.54 -2032.57 3306.24 -2139.79 -104.389 1168.18 1581.69 3048.25 -1321.94 -1975.11 -655.851 -817.605 -560.626 -2195.98 2494.98 -1272.31 -1255.38 501.973 -97.6535 1401.11 755.441 97.6546 591.547 -1611.9 -1663.52 -559.501 -1744.47 -1559.29 481.639 -157.739 1207.12 304.024 1011.3 1459.95 -782.041 -260.491 -103.715 1241.62 -1656.11 -189.533 -823.347 25.1087 300.369 197 482.871 1105.37 641.99 -364.854 28.3748 -272.274 365.79 757.028 -838.164 -408.725 1475.95 1057.37 -343.765 24.7037 -17.0371 64.1079 66.133 -668.783 -808.032 12.5974 -159.485 -262.757 153.395 -168.781 -740.465 387.689 -391.903 -645.049 -793.974 320.438 398.914 -112.938 150.403 277.776 404.513 -302.466 -375.448 1209.77 153.47 296.432 -249.233 -312.078 206.121 -1072.71 205.446 122.851 71.8197 -53.1302 634.147 246.587 336.985 339.891 -381.883 322.432 -497.854 183.923 207.153 224.307 507.474 -777.573 -207.101 563.953 159.113 237.737 -264.524 741.816 520.619 -229.913 497.499 541.403 -96.5866 -452.485 -187.029 -442.988 -261.29 195.786 278.305 -47.4813 -288.801 553.398 -104.126 -397.751 229.085 -224.771 -256.729 118.144 -387.028 -81.7631 -629.053 470.938 362.543 150.808 -12.4706 106.464 545.182 -45.1572 826.13 322.353 53.2861 -76.6467 279.087 346.952 352.757 58.1822 53.7906 -189.606 103.499 295.197 128.54 -794.032 -117.585 853.655 -35.9656 -405.537 324.668 506.929 165.19 -29.8271 -458.514 -384.417 -93.7051 76.7474 119.676 -636.37 112.106 -109.565 565.05 388.837 -523.05 -419.568 -371.729 76.9443 148.621 522.982 409.47 -109.926 470.977 329.502 -176.525 398.211 213.416 476.99 16.0515 38.2533 -490.886 831.051 367.348 263.483 -441 241.316 478.352 -6.6132 274.786 92.1337 161.84 -409.222 245.355 -261.411 377.779 307.104 -509.819 -956.863 -473.49 -433.081 -48.585 338.847 22.7873 -540.371 209.085 -5.87856 -596.283 1096.5 -239.085 437.296 -384.13 -213.047 -121.456 -142.258 -886.38 1017.97 -499.465 -197.148 -400.165 -363.507 437.566 254.754 -73.6642 571.428 69.7617 453.157 -210.067 43.2345 318.866 475.343 -372.503 512.192 -210.824 -672.907 -506.717 180.926 -601.491 338.15 411.535 104.796 142.58 635.292 485.137 117.438 -225.665 -62.8446 25.242 -660.098 -61.842 -326.459 -564.315 -293.671 -585.168 532.632 -206.875 466.738 581.88 232.774 -174.804 -199.638 -179.136 119.713 -288.227 -181.141 238.665 14.6636 -256.442 33.4002 135.227 18.6726 -42.1215 -112.484 -27.4833 153.128 72.4789 7.04866 -88.5631 323.935 -83.2012 172.497 -108.345 -59.1073 198.315 -257.471 99.1915 140.173 30.3671 145.421 -75.1424 -66.4225 69.5996 1.95154 34.2247 64.3496 17.8841 -36.5819 
50459.1 12937.5 3571.48 7679.85 -7209.33 -8835.59 1703.44 3250.29 -4971.91 5411.64 -4383.53 2066.56 1493.25 1179.49 -5401.77 583.083 -1047.29 2981.38 173.826 1494.71 480.273 -886.257 2231 2355.88 -138.901 -5246.42 -4351.37 -4830.49 -2700.05 1747.3 -3401.34 -2558.99 -212.793 -870.026 -2085.58 -614.179 133.155 -251.556 -127.508 -3021.51 618.538 -2859.4 -1921.76 -1833.29 2650.96 -2933.41 -2245.72 -288.941 1672.01 309.975 1405.17 -1279.87 811.446 1193.75 -364.48 100.804 -78.5253 1598.17 -1683.7 -3408.11 934.295 -1608.51 777.687 -1531.97 571.779 464.422 556.562 1165.5 1481.7 -314 -2250.83 -2072.86 -1515.83 674.645 -1114.11 470.179 1432.01 1577.47 -1528.62 1058.56 411.78 874.209 -1093.48 994.188 -507.935 549.755 2438.52 -356.599 -411.715 451.995 65.0123 -1118 -13.972 -772.783 -1783 1175.21 -927.199 907.375 -564.175 613.094 90.5552 945.296 1523.8 930.197 -180.528 -1338.4 -1404.51 -448.712 1845.23 870.848 -1066.74 104.413 1005.58 693.343 -611.075 1929.28 -255.334 -182.784 -898.2 913.037 1155.13 662.543 -1180.95 -1727.53 566.571 110.089 -176.909 743.184 -302.261 -875.929 274.955 1111.02 399.893 177.3 -1058.37 -272.998 -785.507 -631.914 -365.731 376.241 -620.366 -919.905 -458.519 257.762 -59.8788 -624.707 376.721 33.9644 -66.6095 837.829 549.836 -777.437 -47.8267 -49.6261 -174.474 -200.331 1078.95 12.9825 188.884 -362.188 207.764 -415.388 321.184 541.305 -70.4181 4.76375 -232.756 -383.83 110.376 -412.818 637.933 367.023 155.63 9.94303 -96.1519 539.725 -54.4055 37.1778 106.28 358.165 -861.158 -298.228 -606.227 484.992 -260.393 -29.017 -409.882 61.3581 -79.1676 -227.334 -336.186 150.84 74.1366 -151.71 -84.9934 148.468 -492.946 109.712 158.631 216.327 -377.016 -190.633 17.0643 12.4192 -21.3072 80.9126 -109.976 -212.671 -256.287 -170.813 103.048 249.506 -157.188 408.381 120.944 225.523 -404.899 5.26569 -2.95383 148.282 7.74642 79.7457 -57.5519 -191.009 221.135 83.4663 -14.3499 175.18 53.6366 101.595 40.908 328.195 -372.054 196.796 105.503 -151.956 -85.258 146.708 97.9101 25.3506 -49.2517 28.523 183.596 -78.6459 -92.882 -211.015 46.259 44.6684 -153.732 40.7279 24.923 230.634 61.4216 123.517 -249.815 -104.724 -5.48797 -154.809 -0.922307 -40.0434 -53.4696 -104.167 -10.7201 -38.6445 -86.4435 -1.72328 31.2869 124.099 -135.634 13.7178 17.9023 -150.861 -57.7009 50.0335 67.2508 -13.9367 -127.371 -75.7214 31.411 -130.063 1.16531 -94.5561 -11.5936 33.4392 67.9443 50.896 13.2992 -94.0932 -33.2556 -18.823 14.3661 -98.0617 2.46166 2.68937 72.6759 23.3714 -15.4619 -37.9049 32.0535 6.99857 -51.2545 35.0594 -83.3162 91.9365 -8.69755 20.5625 -13.4751 -64.871 -31.7269 23.9295 -60.76 29.7077 -30.7318 62.7826 19.3529 -37.4537 -4.11659 40.9186 34.8516 51.3682 57.9388 5.08011 -37.495 -22.9397 5.96509 31.5164 -21.0957 
47727.7 13611.3 -9444.93 1067.23 14789.1 -8793.61 -6380.58 2762.74 3427.35 4800.45 881.142 -4105.97 -1632.52 867.774 -352.215 797.099 3499.74 -1553.64 -842.439 -2530.3 359.317 -516.551 -504.34 1012.7 -1932.15 153.141 -756.91 2521.68 -939.121 158.06 -1632.58 1373.84 -156.804 -1559.2 2248.26 -1004.44 2049.25 992.184 2565.37 -1435.1 -1754.7 -1898.73 279.271 17.5009 642.784 -386.839 1132.83 1191.39 2272.68 730.205 -701.697 -33.8876 -489.825 150.967 -354.12 -178.87 -441.762 -1424.43 34.595 -580.573 -299.725 569.948 -65.9807 1508.81 -524.706 -181.285 -1482.83 -1381.94 -1939.82 -1617.22 -348.744 818.199 -1514.74 819.279 391.153 506.078 918.637 789.185 -1113.7 93.4942 -959.937 -305.422 1540.44 1236.39 -247.546 -459.206 98.9674 -693.055 -337.071 -731.913 608.606 -515.486 39.8439 -336.134 1323.63 766.744 -1467.65 258.799 -854.226 1682.93 -808.345 1445.88 590.748 826.27 814.482 80.5952 -1635.82 -1274.56 -440.586 1140.3 1469.4 1065.21 63.0071 -1662.85 -1445.36 60.352 331.01 782.279 -1680.6 -1367.59 -1027.82 408.919 243.947 655.146 -7.83806 -1007.1 822.726 -167.519 -2744.8 -1095.34 27.9198 -1890.92 -454.216 674.264 429.493 650.767 -376.292 142.29 -2246.73 379.178 -1061.22 543.36 337.745 -218.089 761.761 -287.351 -146.343 838.994 910.08 183.253 -1980.93 110.428 -1035 107.526 -362.893 612.162 -250.784 543.626 -186.127 -54.9948 605.199 -151.133 -514.556 -708.187 469.235 -431.974 723.814 260.278 346.128 516.665 -280.818 423.208 -729.974 1.7999 697.928 192.356 -271.982 -214.759 -585.562 122.708 -590.399 -218.911 -138.523 50.7614 -629.671 -210.088 228.343 -313.287 -5.64467 619.68 -490.9 -391.069 212.623 48.8021 -184.531 -318.346 4.94446 125.483 343.004 -262.377 443.163 71.2298 435.918 234.531 156.843 238.725 -143.725 89.1878 401.515 270.662 -19.1783 -261.486 442.213 211.989 139.734 -129.015 -70.5033 26.2987 -33.1283 -115.895 -185.716 -99.1342 -148.07 226.648 409.879 -37.4495 -134.976 132.708 379.819 -222.732 -208.894 -89.2154 -235.624 328.439 310.198 42.5738 9.12627 -202.018 25.3016 -75.8256 -11.6431 224.541 196.354 55.5802 -120.065 -146.568 -387.063 3.45791 -17.8225 -36.2935 -60.9429 87.1768 -82.6251 -7.45301 29.7379 104.015 -10.5761 -55.0059 -39.3229 26.6938 -70.5056 32.4586 0.3173 85.7434 137.032 48.3853 -158.613 132.2 4.77995 -112.499 -148.975 -80.0417 30.1938 82.036 -52.4752 -46.4994 -6.27791 103.083 -104.731 -41.9738 5.73098 85.7663 -49.7106 -18.3648 -89.9374 -10.8722 -105.645 -3.29097 -24.2574 -16.5654 28.5854 65.6699 -99.585 -3.83613 5.83525 134.235 20.5278 -24.7054 46.2259 -63.5393 -3.95822 -32.112 76.2206 -63.0467 32.3478 -18.0633 92.4436 4.26154 -67.5481 -73.7147 13.3939 2.17262 36.0373 -19.522 -5.93483 17.098 10.6226 12.1359 -22.4128 -41.8912 23.3287 27.2398 -8.27516 1.85295 -16.8062 -11.8567 19.9721 
51776.9 6171.17 2355.48 9801.03 724.275 -6442.89 -3284.28 3281.4 5068.26 9130.61 -4041.38 2535.64 -3066.78 1796.13 1311.48 -532.652 -2229.63 3866.43 -4136.88 -326.269 1753.31 906.249 -796.219 3083.87 1176.82 1691.7 1491.03 -761.683 313.567 -1777.19 -69.0406 -613.251 308.279 892.536 2454.23 145.735 2341.63 191.076 -105.756 1629.53 1812.97 -275.133 -21.565 -2382.62 -344.137 2353.4 1171.15 -448.451 -128.143 -1721.01 -427.517 -1104.91 -1129.08 638.294 1944.95 4204.99 388.728 -2358.1 1633.55 237.592 -1552.24 236.639 -1126.75 -622.878 400.368 347.476 -1402.25 -2117.04 1196.34 -778.843 -313.449 1446.14 -1579.37 -1554 395.357 2064.68 -819.753 1868.7 -744.938 -332.374 1274.5 2117.15 -1913.17 -1296.75 -858.939 -1368.31 742.749 -362.668 130.309 -1528.01 -1396.95 1438.55 1000.43 2608.96 -443.614 -603.024 574.564 -2505.12 765.189 676.225 -529.167 -563.61 -1084.32 1065.78 156.272 -2116.93 1056.78 -544.582 773.778 497.386 -112.938 -15.9377 83.9486 321.382 207.278 -1529.71 127.144 411.775 -1630.04 -439.945 1226.12 -266.852 -1291.91 -489.228 1116.37 -567.737 854.399 -2387.94 -1381 1025.93 1429.42 446.456 -535.532 -31.4548 206.042 881.32 619.45 153.666 289.584 1231.02 11.4484 -762.719 365.667 -24.572 -425.656 -53.5738 -346.337 183.431 173.735 383.522 138.295 124.048 471.003 787.035 297.153 -391.806 536.232 216.373 215.44 -485.665 142.927 276.976 750.964 508.094 10.9746 352.879 -1187.1 -117.233 5.76289 -615.847 -36.7519 -286.422 -83.5618 28.0714 67.7277 -119.111 43.1344 293.7 37.8238 -312.397 723.316 -215.391 -572.157 -185.384 15.6749 -230.721 430.767 -397.187 -36.4881 77.638 197.706 199.667 100.926 339.841 99.8667 442.264 -105.134 500.214 -220.461 -282.039 47.2482 -66.2886 -125.261 11.9223 -273.411 -416.812 -316.42 26.5678 25.5954 -163.611 18.6537 87.2267 16.6133 86.3919 111.03 -308.285 1.66946 -143.503 74.4496 82.3461 64.106 15.9398 -225.342 -263.088 127.735 -63.6818 34.4597 -51.7836 132.787 -219.347 213.26 115.213 -36.8119 16.5008 -25.1402 41.4789 25.3773 -119.639 224.761 125.205 -39.3773 -24.7852 -14.7761 -139.164 76.4397 62.0076 63.9847 -118.835 241.536 150.794 92.8698 -47.9952 -37.2405 -22.2125 -70.5291 56.0377 15.983 79.7534 -79.3193 99.4793 -156.915 -102.627 -59.4766 85.3302 79.4874 -58.5231 -40.8902 0.791224 -55.2968 -4.87779 2.87312 1.99265 -15.5727 -8.72439 112.325 50.4268 80.2412 64.1192 -108.813 127.673 -68.0079 -58.0015 -0.819872 89.3276 -89.4175 0.900941 -14.8138 42.712 41.8903 25.7075 16.0116 -42.4611 -74.702 -28.0848 54.9006 -132.015 4.00216 46.6982 -38.0728 -38.8134 7.60007 -53.4971 3.02348 -1.27678 38.9354 16.9606 -67.1907 134.124 -4.39136 19.0118 38.2614 -57.1083 -36.5381 11.0192 -28.3254 -46.6985 -78.6772 36.6157 18.6219 -21.4752 -15.6744 -8.13719 -10.9055 -27.628 -28.7532 26.9368 6.43436 
51863.4 6182.93 4438.07 9295.21 -1134.91 -11482 -1443.96 4383.68 1158.58 8275.29 -1522.46 5338.05 -1976.47 3635.24 379.285 -2793.69 -3771.26 4062.42 -5180.57 -20.8381 3491.12 1731.42 -727.708 546.073 2086.42 3202.08 -654.053 -721.352 -352.096 -1272.37 -1422.1 -2649.9 -2017.81 -538.461 1629.42 -1047.56 435.883 -2479.32 794.637 448.95 2613.84 100.918 442.928 -2421.38 2.3986 450.895 -549.93 918.219 -141.68 468.265 -117.006 146.031 -757.425 -619.84 463.386 -1075.73 -824.138 -28.6383 -241.628 -524.038 -112.864 903.173 67.5454 -350.555 -652.169 -225.926 493.632 22.4893 -314.55 243.161 431.317 -751.11 448.722 -48.1818 443.06 83.2137 938.67 -1344.84 474.79 168.827 -644.823 -488.596 963.451 909.44 192.928 288.274 119.054 853.43 -465.9 462.283 409.797 -49.3162 284.465 -556.37 -208.954 131.389 950.282 265.21 -408.878 -227.726 106.673 -651.61 -222.493 -665.74 643.32 -175.886 -482.257 200.011 702.207 -62.5241 -402.878 375.143 -77.659 202.86 -412.388 123.522 976.119 -30.6576 1546.57 -195.638 748.664 64.5769 128.673 -231.457 -894.894 -432.788 -602.681 778.228 1114.63 -594.712 -172.644 -859.058 550.824 55.1099 446.027 -359.388 -100.181 640.051 320.398 241.053 -710.139 -176.416 348.864 446.088 315.144 369.629 159.171 1045.98 855.001 101.115 -218.059 311.228 539.287 381.561 1389.02 -586.193 389.324 94.1356 308.899 533.336 -171.55 -353.566 118.165 879.403 590.883 -514.083 8.67041 64.8368 -393.128 287.162 -329.866 -219.058 -1128.97 241.273 -426.928 -52.4106 -392.817 -947.433 -164.159 -499.062 -3.992 276.394 322.085 -112.762 16.8818 -89.9452 -162.156 -480.997 92.3103 -213.044 91.2292 145.195 180.632 -121.007 187.284 -452.643 353.327 695.622 -307.64 534.211 70.8583 456.982 137.664 -89.9994 -232.739 442.839 -181.404 29.7101 233.732 98.9579 33.9226 -249.716 601.415 -415.815 416.782 -552.705 1.55697 -583.498 -382.635 -779.626 139.599 913.046 113.933 590.501 318.351 533.136 53.6509 -461.974 35.1592 304.836 -1118.78 518.262 -107.554 470.456 -481.509 451.357 421.182 395.977 -568.653 58.1506 -9.98798 -940.47 -748.231 199.217 415.031 949.024 -731.272 -455.528 -25.6445 212.413 72.0272 -920.195 684.221 132.593 87.1221 468.845 -651.989 24.5393 98.6432 -24.1249 173.201 181.295 -83.6878 -275.192 60.5266 650.554 -92.382 374.13 -44.025 57.299 -592.905 303.029 308.162 233.308 621.01 -84.8508 -167.208 70.3391 -72.9715 232.343 41.9171 -289.442 -301.029 -44.5136 -201.613 132.723 -12.7806 -10.709 99.5275 107.517 -44.1535 71.4558 97.4855 -296.255 24.8795 -124.84 26.1574 -97.0661 -159.48 -33.0106 84.1373 95.3966 92.5595 -39.6359 53.7715 147.877 28.2742 -61.1764 -116.88 -223.3 47.7304 108.086 -62.7867 72.4413 40.0653 4.16405 -8.98767 7.02775 89.19 -39.6189 -32.8842 1.12328 -40.9756 49.7037 23.7523 18.1093 10.814 
51544.1 7444.42 3766.38 9525.9 -945.541 -10768.2 -2027.7 4403.95 2593.06 9608.67 -2003.6 5048.29 -2577.7 3535.6 1448.79 -2493.73 -3733.15 4878.95 -5299.78 -128.495 2562.92 1580.84 -780.589 489.154 1417.06 3675.33 -242.573 -1445.75 156.577 -1410.41 -819.046 -1709.07 -743.035 -628.679 1810.27 -1503.57 323.255 -2544.99 405.239 1291.72 2452.5 -120.688 644.17 -2710.27 -485.856 130.775 -602.428 66.882 -219.216 300.705 -220.769 -147.71 -237.478 -534.45 939.522 130.702 -603.336 -654.713 -28.4954 -478.021 -118.652 789.137 769.149 -255.105 -589.627 -172.139 -5.72656 267.698 284.514 554.722 1141.76 59.7768 576.747 158.004 652.944 -29.8298 186.413 -642.038 217.147 -6.62827 -178.171 -341.769 480.325 134.997 912.57 95.9739 -205.024 154.237 101.165 436.795 -317.722 575.41 138.24 58.8381 242.213 -110.027 115.352 28.6556 453.254 379.472 443.019 191.616 -491.098 262.452 -431.857 473.01 256.761 -206.202 -384.913 -322.427 236.567 135.355 788.343 -995.637 -359.581 281.294 -393.479 -321.783 10.8842 14.5067 -540.423 353.547 384.891 27.4436 39.8832 -212.599 331.541 -89.9771 252.322 -137.861 -459.952 -40.9952 -154.183 200.531 -503.755 -44.8534 657.737 171.174 420.859 -370.334 350.958 225.216 -449.56 -221.498 -81.1096 -332.984 212.345 -754.161 -827.166 -427.473 353.835 268.052 -730.085 -839.341 -852.223 408.592 -188.23 -452.904 -767.505 404.547 771.667 -444.727 138.408 -1278.47 -479.565 -170.284 1121.36 502.929 415.595 189.853 283.37 388.451 1355.09 162.136 -88.4135 778.36 -7.14897 707.714 640.962 1114.98 156.911 -712.169 -579.284 453.546 898.895 -354.375 -1470.34 832.425 -423.083 378.36 -1443.04 -675.082 141.957 -528.634 -228.459 383.132 -657.364 -740.206 290.257 -647.85 -263.283 397.2 738.407 -586.993 -276.398 -732.544 774.692 285.774 -117.576 73.2765 -453.38 27.3425 -155.6 -587.503 -1094.61 53.3312 -111.849 193.153 -564.137 46.5452 211.129 1668.76 249.727 298.471 -356.198 118.071 370.533 -591.807 -549.889 24.1006 558.846 -469.688 220.554 -143.113 594.238 -267.217 -18.2291 570.511 -1.72235 -293.668 -239.061 772.052 369.281 414.652 128.127 -334.999 -720.017 -477.397 127.565 -64.7658 109.305 228.134 -303.338 -4.78948 426.399 -188.692 337.019 161.527 32.7219 96.6513 -15.2593 -229.94 52.7584 -55.9421 308.119 -64.8581 -68.0423 -338.39 -91.8944 97.923 134.219 126.645 -111.226 133.473 90.3226 79.9464 -23.7127 -72.9532 -68.6312 69.3213 14.3107 -19.358 -11.2099 -122.055 125.967 -52.7515 207.007 39.4538 -96.7664 -52.3787 -50.398 21.9145 -122.888 39.424 -60.8364 61.2309 -140.061 64.2038 92.8147 16.6738 -101.076 -192.176 50.5214 -84.8708 -81.252 -85.2004 14.6878 0.629198 -39.7001 59.123 -27.0573 -18.4353 73.1596 18.7417 -47.3958 13.1761 -28.6033 -86.2468 -56.2873 -73.6866 -60.224 15.6622 -1.61398 -9.10229 8.98917 -4.33438 19.3051 
51552.2 7698.93 3993.46 9044.06 -1886.55 -11295.7 -1209.2 4964.16 1992.75 9137.85 -1391.98 5061.92 -2456.44 3842.49 773.571 -2448.13 -4018.73 4302.53 -5507.83 -276.397 3125.13 1403.76 -753.381 436.653 2128.44 3270.41 -144.69 -605.314 -284.057 -1313.28 -974.015 -1914.97 -1316.6 -776.842 1553.72 -1682.83 684.684 -2319.34 358.939 755.379 1717.6 -334.858 760.069 -2864.64 18.6062 298.365 -733.849 -41.4866 -398.667 398.896 -477.288 461.622 -147.152 -767.37 958.92 -1624.67 -667.419 -148.727 173.113 -491.872 455.303 874.779 505.623 -245.7 -331.08 -440.542 573.859 736.393 -213.622 484.018 1123.58 -464.597 1051 369.083 -125.989 -760.77 502.49 -1207.97 236.71 -85.1687 -248.672 -519.334 1277.83 130.176 1519.87 -264.878 -288.325 218.208 -176.325 527.869 638.988 -247.126 94.5115 -1073.43 687.036 112.184 106.29 675.201 -458.383 172.072 769.832 -672.46 542.604 -426.331 -221.997 390.906 -112.282 366.999 20.1418 -606.544 -377.668 -406.378 259.78 692.39 -396.859 -57.9005 518.289 -101.339 1025.41 -191.107 275.937 129.526 181.146 498.872 -408.052 -156.249 -307.068 583.952 -389.556 -632.468 -329.268 -316.923 -91.6894 245.387 166.841 72.232 -653.764 -253.996 134.594 -210.32 36.7482 381.708 33.5237 29.2512 411.748 335.043 -840.019 811.691 1530.65 48.1271 -76.1461 142.696 555.523 462.177 754.204 -173.381 -132.28 -80.1364 594.679 -149.561 -713.864 -43.1277 -188.935 333.812 -166.883 -45.3881 -597.854 97.0132 218.028 259.856 -897.458 -377.063 -1751.14 537.375 -472.992 -1018.73 -68.0666 110.193 59.5475 -562.098 84.2809 93.179 75.9833 -134.243 -779.093 569.597 837.673 227.363 210.031 -1022.51 872.713 585.901 -172.323 294.721 -381.582 337.603 264.123 577.483 368.778 -156.41 -127.753 -313.658 -223.465 150.302 591.525 -368.597 261.226 -364.758 576.528 -204.75 365.373 -67.9275 -368.586 695.089 -123.126 459.473 -417.695 707.71 311.817 824.502 -334.307 -1320.83 49.4981 -414.774 -492.482 -563.292 88.4205 328.046 83.9748 174.146 907.234 -321.662 242.624 -523.221 249.257 -162.607 -650.821 -427.048 751.222 -230.761 -137.035 985.863 640.549 35.7289 -160.546 -805.286 767.038 95.4579 84.5333 -250.569 143.922 829.734 -462.953 -253.47 -196.745 -479.245 444.042 -220.767 233.436 115.672 -141.429 -287.876 56.2303 181.166 7.61045 -231.196 191.296 -225.827 119.562 -9.30717 258.152 -256.757 -153.743 -33.1028 -514.618 335.713 75.1464 -34.1078 79.4364 -86.7988 -21.8034 191.032 17.2998 -31.3898 140.059 4.97011 -79.2542 -140.669 -48.8462 -11.603 30.6837 32.7118 -206.074 89.208 -32.3322 14.0777 -81.362 77.4226 173.338 29.5509 -50.4665 36.4795 -1.15496 30.5768 26.258 -95.494 -78.4758 21.0642 39.9638 87.4697 -8.16234 -86.9016 -2.44585 -114.481 -9.38483 33.6222 99.2725 -8.45006 -29.9881 -9.48536 45.4453 0.0223956 49.0152 0.640977 28.5281 -34.6183 -35.563 
51833.2 6699.99 3833.84 10153.8 -1461.41 -9303.11 -2436.62 3711.95 3959.47 9850.51 -1535.36 4440.48 -2235.81 3419.63 1625.52 -1837.89 -3387.01 4768.67 -5293.61 422.869 2117.69 1483.18 -1261.27 569.904 1310.55 3847.78 -256.245 -866.403 -47.9302 -1297.16 -30.395 -1389.9 392.383 -204.774 1622.43 -825.918 762.406 -1431.99 -167.289 1216.97 2184.77 -328.138 1252.86 -3127.42 -933.978 659.294 -477.186 -16.0746 682.98 20.9093 -396.772 -337.414 -119.161 -604.969 1271.29 225.922 -319.303 -716.72 347.187 -612.226 -257.054 886.447 582.197 286.615 -498.667 -309.631 238.447 247.97 341.323 727.844 1008.32 -72.5122 951.294 392.31 -142.511 -783.846 -250.763 100.522 -102.537 -153.726 -233.76 -351.304 533.948 -259.757 816.735 150.828 -489.755 -284.028 194.629 138.244 -529.03 904.044 -324.669 -130.784 734.659 123.739 -325.995 1298.39 957.059 91.8275 52.3572 1546.44 -375.917 61.7808 -817.584 266.466 424.211 -29.8611 -996.442 -28.9619 -288.949 53.8584 -40.1921 -88.3547 -273.498 208.267 -677.23 -445.445 -266.158 302.786 -1117.29 281.399 641.853 -16.5649 -410.705 583.383 557.82 250.655 312.062 640.829 -1089.53 1411.17 607.557 -154.533 -296.26 -99.935 -339.666 -824.828 -555.473 -275.634 -132.874 639.959 -108.418 -107.704 -477.347 23.0546 866.021 -649.955 -921.875 163.809 -7.49533 -713.237 -768.37 -463.187 -1833.13 656.774 -598.942 288.979 -269.23 -118.081 120.261 1035.26 -63.1117 -253.568 563.733 278.824 17.3809 -580.122 -459.634 133.411 1209.64 31.5984 1663.83 -876.101 727.955 458.723 376.524 -13.2227 -836.153 184.099 -340.256 471.915 538.938 -67.0699 53.8179 -260.884 767.518 -360.777 180.694 754.085 450.568 -431.609 -430.682 -327.983 520.288 -613.653 186.7 -661.96 -312.805 604.088 513.595 -366.683 -686.03 510.284 181.58 655.904 -612.774 -71.9063 -588.63 -16.1951 186.896 153.369 -12.7564 54.0313 625.862 329.476 410.323 -214.896 523.012 -250.133 14.9326 -1219.67 -242.378 -89.5879 223.574 -70.8538 -674.309 750.393 389.567 -457.721 -437.169 199.885 -239.097 190.927 -446.927 -30.6365 113.396 -436.438 -204.719 332.13 401.57 -845.331 -362.774 -451.901 -309.282 163.695 703.183 857.282 -188.41 149.813 -416.291 -38.6886 210.088 61.7697 -209.562 169.808 -244.874 -13.4808 -290.658 -369.81 139.51 416.146 19.1483 171.36 -349.497 -281.264 93.4304 0.507811 13.0555 -104.153 133.163 -135.306 -2.01399 -307.791 -184.126 -358.245 47.414 102.575 146.002 -275.743 149.883 158.493 253.812 83.5613 57.4426 -155.009 -128.855 33.8155 22.2024 -111.445 64.7382 -58.0301 312.802 127.268 -25.6512 115.224 157.569 -26.4275 -76.549 22.5177 -3.16882 59.6536 -132.866 77.9362 -92.5661 76.8802 66.4058 -57.6704 58.6608 49.2494 24.8954 25.5607 1.77909 40.2135 51.8817 -21.3158 -12.0353 49.854 -44.3446 141.436 19.4469 22.6019 -14.9702 -12.3379 -25.5172 -4.76386 28.8883 
51810.8 9945.42 10713.9 -3597.35 -7536.7 -1121.77 2143.5 9520.89 4830.41 -4954.97 -1620.77 -3275.43 -3713.4 -4042.71 -2509.37 -1621.17 76.6097 -1885.13 -973.601 -121.745 -2538.48 1440.49 -1005.98 2323.64 1860.32 148.309 697.602 -760.635 -2517.1 702.501 424.192 -420.36 -237.614 -60.6372 564.849 3520.73 1922.74 -1730.78 -321.082 -683.948 2085.27 -1416.09 -313.051 1927.78 -2652.97 3298.74 -1602.53 263.027 -370.523 -874.943 -1376.26 1579.71 2005.72 -1643.66 601.19 1394.52 -668.005 125.958 880.251 558.792 137.699 -2116.42 -2844.5 666.795 974.412 -181.949 -476.682 -13.3746 279.78 1238.06 -869.892 -36.4849 1276.68 -343.265 387.063 -334.111 -577.158 223.564 -556.765 1127.62 200.648 725.372 -493.822 785.005 466.957 -350.9 795.459 621.19 384.106 274 146.849 154.38 -1567.21 -1001.56 -316.866 1512.65 310.045 426.553 -763.009 396.465 421.349 554.955 -95.9925 -639.091 348.479 -167.216 -590.673 -379.675 -551.369 -374.194 -542.603 535.652 -132.425 -558.071 -55.1449 -658.515 -499.692 306.258 -419.41 994.6 78.0832 586.052 -79.3487 934.052 -161.136 386.013 -418.057 878.908 -790.46 -79.0321 766.951 61.9675 258.211 1345.08 17.6099 192.201 -869.779 -1.4538 71.7349 170.15 0.953673 565.403 -800.924 69.742 -312.762 581.763 -298.907 243.865 190.446 -320.918 -58.8528 -137.199 -604.787 -23.7509 -302.115 -43.4242 -44.1343 -1018.24 163.621 -341.94 -532.844 -960.987 303.363 -241.617 -681.899 -520.704 -250.448 -393.024 -406.93 -343.241 -39.1074 74.702 349.753 -138.755 -459.683 549.039 54.1543 -510.314 277.337 326.322 647.092 460.708 114.16 326.37 -254.404 13.4745 177.48 439.186 615.964 -432.862 -374.193 -312.572 126.201 662.678 -148.632 155.296 -446.909 -335.379 516.149 -47.9521 -300.846 82.0148 1.21018 -127.937 -91.5976 -816.182 -77.4946 -300.448 413.759 268.123 -292.332 296.153 1004.75 365.877 68.0939 -476.437 -187.748 -161.259 255.809 -1053.18 265.407 -950.614 505.814 -7.02462 30.3992 -871.833 -146.143 -615.613 488.956 -73.0862 67.4128 -1075.53 51.5502 78.0072 78.2141 255.223 317.316 -79.6036 74.4544 445.144 171.466 -595.135 -541.111 670.288 549.539 -183.099 -134.6 -232.908 -105.45 -186.079 270.025 27.3528 126.203 -308.957 760.984 -30.3313 375.346 -41.9328 -622.438 23.049 213.3 -186.573 268.12 112.782 -23.9632 -139.342 71.0706 50.2434 -181.36 32.6138 173.836 -131.227 -249.24 42.5446 541.446 -278.403 -44.1248 -179.982 -172.149 -36.2969 -11.429 14.0175 57.8684 667.587 -112.321 -349.435 -230.833 64.3868 -312.055 117.573 -301.999 31.4684 -48.386 -58.1921 -444.693 -67.2138 245.124 289.14 -124.27 -26.7922 107.481 584.324 -31.9598 -22.2766 134.099 -33.0491 -142.236 78.8621 22.7645 -47.9663 -260.73 -17.1783 -165.72 -103.188 145.872 16.6594 -36.862 -39.8013 82.3678 110.066 -47.7978 8.16081 -22.5971 -13.846 40.2293 -8.0473 16.3979 
51467.4 11331.7 10749.4 -2103.31 -7919.85 -2427.54 3720.84 10487.3 4054.48 -4268.68 -1066.58 -4187.46 -1655.05 -4472.15 -3554.33 -661.194 1626.38 -2548.36 -2594.22 371.416 -1629.44 2209.84 218.391 384.851 1290.92 2125.43 -562.749 -1240.48 -2394.18 1806.21 763.434 305.533 509.933 416.059 -1132.32 3728.85 1025.76 -1809.22 -274.621 31.1519 1741.24 -1477.84 -135.929 1658.36 -1746.89 3281.71 -476.591 2024.2 -602.074 160.705 -2093.88 1024.68 791.984 -1164.4 1233.78 951.904 -571.229 445.329 203.721 334.919 202.704 -964.454 -2285.83 511.773 698.758 890.754 -1001.12 304.944 -848.966 327.402 -160.418 458.37 1094.54 -1029.52 1648.64 167.592 222.267 419.967 495.575 960.905 -130.497 -61.7837 100.031 -324.809 307.881 -1308.81 606.84 -426.337 565.056 388.903 132.999 -72.8886 -472.946 -266.075 10.2911 984.552 -817.648 1010.92 -506.48 -154.105 108.128 -340.499 400.686 -54.2148 328.624 276.488 -306.983 60.4043 -733.528 -179.463 171.4 -6.2207 -299.796 184.11 -54.8348 -194.743 -85.4024 -273.567 451.656 -443.254 6.53487 272.108 -120.581 -271.385 -8.14027 94.0532 -27.6208 -343.838 411.236 64.1345 218.105 633.088 -656.053 -696.755 -147.147 210.918 -457.591 22.1639 -461.213 -243.346 207.391 17.5713 -37.6416 -466.797 -383.237 62.9114 -234.214 -67.5436 242.607 -164.642 121.008 -431.967 431.498 -162.757 -543.216 -54.6622 -555.948 925.45 64.8816 66.0813 548.242 793.609 -137.454 494.599 -209.104 97.5399 -182.866 95.8572 269.073 387.691 -164.527 43.6496 -168.99 399.859 522.326 -336.419 -377.922 369.536 -114.471 -138.641 -533.418 -197.97 -513.404 90.0184 499.406 6.12593 -310.111 -166.442 -632.878 56.9679 522.328 57.3118 -161.138 -276.454 -348.708 138.873 -40.949 291.043 -164.936 36.303 323.827 239.538 137.037 267.388 -281.864 1002.71 118.098 -50.2117 -324.534 -204.075 195.106 -227.574 -577.376 -452.595 369.472 -24.8611 1013.92 401.683 -191.519 841.586 -385.088 1173.3 114.364 -424.25 166.416 1203.68 -204.208 827.605 -351.24 -275.444 218.56 548.594 -388.666 772.992 291.142 -80.3388 -871.679 -205.041 -46.4581 -432.094 -513.343 1484.68 -408.303 -324.51 -213.65 7.7747 350.176 -718.821 -665.217 124.858 -43.6725 -216.548 -120.17 78.123 -505.082 -21.6343 -436.35 -200.623 450.831 -152.9 564.666 110.63 -423.935 -65.6319 -182.718 -123.98 57.2186 245.628 418.809 -305.011 -126.09 -106.904 -60.9407 350.88 653.342 -130.279 -56.9557 -520.438 -504.024 -525.472 -21.8142 262.98 288.871 175.678 -91.323 336.062 -506.266 -130.408 -25.4802 -33.3326 -179.338 39.5393 59.9608 -93.794 21.4349 -135.17 117.293 -1.7961 -183.577 -201.687 -30.4655 258.65 -92.9351 -140.202 325.96 -102.674 -275.358 -199.195 -9.49867 -151.868 -62.5361 -52.4109 -99.4267 26.7556 -73.247 23.4003 -42.4144 65.1786 64.7447 -63.2919 -14.4464 117.371 -61.3493 -35.1055 50.7819 64.5642 -5.22503 
51685.6 10564.3 10745.9 -3228.25 -7937.57 -1105 2676.86 10119.8 5144.81 -4122.79 -724.279 -4071.69 -2359.94 -4437.94 -3237.64 -1271.62 1498.68 -1574.74 -2969.77 156.651 -1863.47 1803.68 -818.5 23.9815 977.742 1347.35 -411.022 -2227.39 -1696.72 605.532 1097.49 694.343 776.081 575.281 -1227.11 3169.95 1970.17 -1247.13 146.922 391.222 1411.57 -1068.44 -417.614 2256.82 -1822.49 3296.46 -425.482 2101.38 -1353.37 303.77 -2305.11 468.487 1189.47 -1349.84 1249.8 994.503 -120.866 477.443 -336.602 909.267 203.949 -1259.8 -2624.81 -486.445 1050.2 699.034 -1166.96 530.227 -205.675 217.884 178.425 -74.4152 1008.55 -1780.27 2275.12 177.601 1477 1175.92 173.807 1282.67 95.5043 -74.7682 -91.5912 142.832 -121.913 -920.09 1188.15 -841.991 96.0428 222.394 -62.8891 362.438 -427.098 -927.659 84.1011 1780.18 -706.652 473.992 -584.218 882.652 -338.419 -83.1322 854.475 -302.584 -99.3639 233.64 -414.006 22.7503 -818.663 -400.192 38.3523 -98.7389 -451.419 -612.634 -22.4891 126.023 443.844 532.871 33.478 389.782 150.211 222.013 281.491 -30.1037 -144.574 -194.673 256.409 147.794 232.084 -392.635 50.539 -189.615 69.4735 -248.289 -237.369 -211.265 154.816 -114.119 -176.116 -157.875 293.688 -413.844 377.265 528.382 179.911 226.965 32.6433 337.528 -169.209 337.524 9.67162 -376.607 3.18542 505.215 270.63 396.696 259.366 -132.875 -147.923 172.984 314.349 161.647 56.1391 -279.518 164.595 853.15 -22.7008 300.126 37.953 -288.519 193.924 -260.339 -150.208 285.626 -436.738 228.574 -7.90014 -29.4059 -472.587 147.549 -246.101 -86.2176 -185.95 -2.55976 162.052 -322.279 -399.889 -375.383 46.3039 207.705 121.074 120.358 122.178 -149.657 171.087 -200.966 508.43 89.0139 -107.169 -146.017 144.361 -301.648 -406.013 -122.891 311.126 225.562 200.583 233.843 -337.314 -54.7634 -106.124 430.813 -79.0353 207.639 -179.112 323.84 -726.153 -337.511 -130.534 248.437 -69.9125 157.996 -412.408 571.459 -384.299 -50.1877 547.013 -206.544 -43.0449 316.64 -467.393 356.313 306.414 -873.563 -286.654 -86.4521 380.538 218.705 40.6279 99.8416 196.095 -585.374 805.501 -362.624 -165.527 380.719 36.0248 675.129 769.486 -177.595 -175.457 75.158 124.577 194.278 -260.893 7.84869 117.028 318.47 341.458 204.555 -788.511 106.458 59.8401 -127.598 184.112 327.51 -95.4244 -374.596 -73.6559 103.727 -75.4332 327.087 339.475 -396.15 -1202.95 432.137 120.774 589.801 592.902 541.3 70.9709 -239.381 -363.065 -831.781 160.76 24.7235 579.999 112.187 248.016 -157.994 525.657 -121.881 81.5392 132.852 470.34 135.236 -283.363 -324.898 302.995 213.742 -97.9196 -765.65 154.383 102.461 -391.425 98.9854 353.032 9.0234 -61.1693 214.744 308.42 20.0588 186.106 115.235 -98.3296 -55.967 32.0943 3.03205 -133.722 -93.0824 11.3323 -116.385 92.8182 88.0897 -53.8702 -40.5145 -24.8184 
53140.2 2855.43 5312.96 -3207.88 -5436.23 -1468.82 -3016 4421.19 6305.77 -731.411 -79.3803 -5766.1 -5008.88 -3892.76 1404.23 -1520.2 5470.75 -34.0948 -1744.35 -5309.56 -295.239 2192.14 -401.407 2094.27 805.282 -2309.64 3030.85 2078.55 2543.65 -2774.57 -4974.08 -1023.82 1668.28 -1560.02 3939.34 2322.2 -885.97 -770.795 -1.05015 -2777.84 413.237 101.484 -745.241 -77.6689 -754.985 -2881.3 836.05 -1739.16 -501.778 -51.4223 -916.891 -58.5747 -59.913 2450.88 -426.169 -784.554 -903.834 -510.606 1023.13 -1755.54 410.34 1254.92 -332.514 805.042 1380.31 -102.106 2682.89 452.515 1689.55 492.136 -666.594 335.944 -1895.06 455.175 690.865 -561.735 -1076.13 -1695.47 2187.58 -419.578 65.0486 216.22 -135.041 423.39 216.472 -363.483 610.425 -215.43 -353.51 884.767 -483.232 98.4928 -227.795 -106.346 -1676.3 -562.124 -514.186 -1724.17 -366.665 -1.05645 -1440.79 -454.636 -615.44 -285.139 250.869 1385.64 -79.4288 -699.573 -1548.61 15.9719 6.83948 -279.147 -927.689 -82.826 -206.998 427.776 -451.935 -731.11 -724.203 58.4757 -67.6815 757.912 -861.87 695.012 933.892 6.43934 1483.58 1692.78 876.328 -160.823 -291.391 462.724 220.853 236.898 288.804 1397.93 1023.09 643.351 -111.906 390.754 274.511 -72.8754 -167.602 168.013 -51.0829 -576.59 406.777 252.481 -655.995 -687.27 84.2043 -761.678 657.129 910.693 -81.3997 -691.269 306.517 -776.884 599.257 -116.051 769 -974.319 -900.959 -700.115 1133.57 -72.6143 294.162 -290.117 -213.605 -175.901 -161.897 -244.217 -343.511 249.629 -26.4521 363.918 604.649 160.573 -413.466 73.0605 407.645 -159.382 654.66 505.327 -509.239 578.848 164.437 -64.2956 209.224 -362.257 53.6492 365.385 -428.674 -438.666 68.8626 -8.72877 754.318 477.316 -422.67 272.518 -7.27405 -288.463 -221.526 -648.019 53.2557 23.3489 -52.6301 728.869 -59.4232 231.638 19.6487 431.894 -174.085 112.923 -608.195 523.007 -93.0585 -368.97 -296.126 65.128 87.357 405.415 -450.501 -258.895 -197.188 139.771 -462.598 95.7805 -148.026 -81.7054 118.266 380.563 -545.744 184.094 -102.549 -76.0477 -343.169 -97.1673 10.7859 -137.038 -129.928 -183.601 -239.746 87.1049 157.756 259.017 243.738 229.737 24.1781 -251.957 -173.263 279.328 32.3327 25.7429 7.46655 45.1691 -219.439 -13.4225 348.051 657.984 51.3922 -267.268 402.786 216.272 205.674 -172.537 -77.1808 3.31119 151.988 173.023 346.656 -49.1121 262.266 371.784 80.0334 -91.9573 -58.824 -335.222 233.898 -366.021 -2.64049 228.214 134.093 -40.0208 150.652 -132.849 84.6425 229.109 -5.26718 -36.5404 -128.584 -121.462 -59.8912 -81.4944 -28.8788 -12.179 -75.4836 11.3187 168.554 -65.3389 -61.1695 58.0626 -99.4746 -128.705 102.846 -84.1136 124.461 -81.1737 49.5086 -50.9652 68.6877 -89.5488 -20.2855 -21.7399 45.0493 -55.3903 -40.5389 40.383 31.3624 115.397 6.29939 52.0874 -12.1059 -16.986 30.3542 -30.8225 40.7306 
53331.9 1719 7189.78 -3172.78 -5231.07 -3836.49 -3573.18 5307.67 5651.69 -1369.99 623.903 -5653.65 -2933.21 -4544.16 1387.88 -1136.94 6309.93 -156.517 -3081.94 -4790.13 1026.39 4225.88 694.093 -65.0126 -714.737 422.465 435.567 1392.67 2002.15 -2247 -4446.75 187.651 3167.82 -2121.46 2069.95 2469.64 -3055.76 -400.304 -1094.5 -1174.19 186.091 924.003 -1493.07 -442.311 98.962 -3425.03 946.406 -488.532 381.614 230.499 -1129.89 85.6716 82.082 1949.57 -115.5 -1609.8 -1131.97 -39.9314 1243.08 -2344.33 -24.6237 875.958 1575.08 680.552 537.933 457.734 1413.33 690.604 1651.53 420.537 -799.983 225.824 -358.432 552.815 348.241 268.478 -1258.24 78.4192 1125.71 409.009 233.941 -345.268 -10.7567 -757.749 -184.039 -31.8342 -721.818 -244.433 -373.854 -29.297 -238.533 -977.667 -1152.11 285.484 -77.6936 -297.259 -237.509 688.409 77.9492 -213.151 601.178 730.015 87.4052 688.957 -304.483 -461.131 135.363 1157.15 202.858 130.568 492.193 -77.0308 -47.8841 487.533 379.392 7.88744 -26.2966 620.796 -76.5463 -253.455 -469.089 -593.607 173.627 -299.92 429.683 677.461 -821.933 -274.084 -24.798 408.528 62.3696 895.812 -298.069 -7.02761 -220.157 -696.206 -640.735 114.73 -62.7723 -163.613 329.074 -105.47 -869.51 32.2874 -35.7781 594.089 -20.7387 -193.476 241.853 -654.891 196.187 366.968 -15.3538 175.353 -138.518 -300.622 -31.5437 150.452 24.717 -277.674 195.439 102.034 346.314 107.605 -593.547 400.766 260.87 -244.025 -256.421 -81.9086 -265.035 279.544 25.0923 -190.318 -893.342 -2.00819 -486.583 306.904 -72.0003 133.326 428.883 75.0397 -261.592 -468.675 -102.957 -619.483 -138.034 -546.047 -6.7839 431.95 167.524 -215.43 -42.7995 58.0133 353.983 -487.614 -686.624 758.982 77.7962 -39.7581 35.6445 -445.036 323.602 -360.755 333.54 98.529 -606.496 -33.4407 777.695 -154.598 -93.1191 -133.904 183.449 -156.611 412.821 -969.617 180.763 737.264 214.972 5.32675 -187.37 -133.189 1228.98 371.376 -27.4223 -51.4162 -107.879 -490.006 223.897 -305.286 -163.477 -300.129 325.625 124.386 -184.212 553.966 433.681 327.784 222.035 -210.868 -70.8387 735.381 43.7602 -761.764 -405.855 -332.441 128.157 -492.794 98.0283 477.034 36.3521 -113.912 -613.618 -132.096 314.593 -140.338 245.566 -51.1532 -597.126 -914.167 -299.46 731.398 -733.476 -266.761 -458.362 226.084 -239.813 -30.8182 -239.638 -575.519 -758.975 5.14012 -161.178 -260.127 -353.884 72.1714 391.355 692.611 -424.358 544.868 17.8879 -404.245 -375.771 -161.958 -281.251 -27.3874 241.881 -198.918 49.5601 30.3844 232.6 87.8202 84.3121 -38.8985 104.826 59.5741 62.6718 44.3082 -182.768 133.651 60.9191 -165.265 131.503 60.1622 -117.346 128.014 -47.5588 34.5352 4.5982 154.492 -88.9538 130.831 86.9185 58.0431 87.0844 144.203 92.3757 147.821 -61.6986 -89.1949 6.49424 -45.5192 -22.5072 24.0689 -13.3443 45.6325 -0.74294 
53087.2 3236.68 7349.44 -2752.93 -4938.15 -4074.67 -3405.97 5125.06 6179.03 -661.716 1154.31 -5474.22 -3406.24 -4366.52 1044.62 -1390.32 6163.36 -642.524 -3467.25 -5192.21 451.018 3631.34 7.9628 -1137.79 -1224.65 577.163 1118.05 654.299 3129.44 -1889.54 -4044.68 -27.298 3487.02 -1275.19 1448.74 2413.02 -1592.57 -290.149 -442.102 -745.62 331.134 1109.5 -1558.81 62.1401 105.584 -2686.97 1530.82 604.234 -416.321 923.558 -1781.68 -1097.74 1011.56 1015.27 728.893 -1558.26 -860.1 533.54 73.1054 -2013 195.248 1381.58 1237.62 998.279 1577.9 475.041 1469.76 1776.12 436.811 -92.9855 -345.124 343.993 114.827 245.103 233.051 981.252 -1008.23 1277.07 1030.41 662.416 -265.849 -430.945 334.35 799.859 -655.422 493.832 -883.407 395.665 -619.123 -1035.41 -291.142 -1254.68 -268.124 448.575 241.372 296.316 896.739 -296.399 356.38 -66.3323 387.076 4.85455 -398.515 -449.241 331.043 -2079.63 1212.86 313.514 1018.24 262.856 29.9972 387.127 799.014 -206.576 1433.89 -277.841 1163.56 1119.81 -80.8639 92.3216 -0.117576 -151.156 1071.16 -382.952 -1103.86 174.723 -1359.15 -1460.49 13.7353 -409.593 643.526 -135.607 -532.962 -298.651 412.321 -1420.38 -450.873 -18.9047 173.405 -390.801 -723.323 -59.7792 572.899 376.961 -81.6019 -110.271 -786.433 54.0766 274.315 1043.19 208.934 540.049 -1080.52 -808.604 56.4892 967.596 30.1443 154.057 -496.04 -15.939 -486.532 921.777 602.578 461.011 -317.445 -64.6667 -386.514 534.602 664.611 412.47 -63.3111 -104.595 62.8101 -268.099 676.611 -646.542 51.4792 -241.132 762.226 -249.604 -887.552 -50.1053 -376.4 -319.291 563.094 -244.171 16.1586 399.136 -307.934 40.3573 -216.512 195.22 555.775 -33.748 -175.014 286.899 330.22 -948.807 -1.11254 -154.36 -69.0008 532.749 -180.624 822.822 82.0215 -198.88 876.923 -572.069 -614.349 137.462 180.332 -22.8231 -164.393 113.713 -54.003 287.33 -137.741 -490.519 -28.2641 -88.8976 -28.6404 -245.494 -898.202 -211.651 111.685 -166.584 360.525 485.105 -110.947 645.66 -2.56254 -266.507 167.087 -332.098 251.231 -614.757 -6.47938 -235.602 -338.221 223.199 66.7339 -571.914 141.324 664.617 112.089 275.365 -197.023 448.383 -190.807 -180.608 165.848 -173.298 548.208 184.414 -177.345 84.3075 -69.873 -92.3038 164.544 302.448 271.727 -429.054 385.905 179.9 290.846 100.704 301.752 35.7756 140.919 354.781 484.372 1.1155 -24.6935 -104.299 189.23 -0.368911 -298.865 -399.403 229.132 -236.117 -32.9854 115.509 165.07 231.641 120.935 89.0747 -159.659 -10.8826 -59.7582 -0.113719 -210.644 20.2364 75.0456 119.335 -72.2934 -10.9026 -9.39966 -114.728 68.9689 -63.8769 21.0613 137.297 -0.182283 125.125 18.0089 -62.5332 -51.9333 -49.6553 -25.5272 -17.1751 24.3721 -52.8663 -80.5101 -64.1244 -158.482 0.91212 -21.758 -162.562 78.2254 -14.8532 6.09469 -12.8297 51.145 -1.39331 -8.57457 -57.973 -23.1127 
52267.6 7505.64 2489.8 8744.67 -3556.32 -7130.82 4288.43 -3682.46 -1055.52 4766.79 -4187.14 -146.542 -1689.91 4975.29 -2358.03 273.135 1278.38 3015.59 3525.41 3012.08 -1696.18 1457.29 -1175.77 312.604 -2201.45 -362.593 1388.45 -539.208 -2062.36 -2313.58 -1083.61 3849.75 2251.7 -1586.56 3586.22 4867.86 2504.16 3104.56 -292.47 -1090.48 -1288.26 935.374 791.199 2641.21 -1390.82 -3300.66 -1029.71 1151.85 -1301.73 666.18 -428.419 118.622 -1088 -1607.12 -1114.29 -63.7351 2396.06 1052.46 -461.523 -316.561 -158.399 -966.327 -547.345 -565.875 2026.58 584.352 -88.9801 -1008.18 1295.95 -1987.9 1685.83 -1711.6 936.097 -2026.88 -2733.9 -557.495 -107.74 -1353.17 729.569 -2150.65 -1026.07 653.131 1551.63 -357.591 381.904 -1271.11 -442.981 -755.767 244.858 305.617 1854.62 -873.633 -434.594 618.497 942.058 -1090.81 855.111 579.344 -1252.95 390.584 -1381.51 -1213.79 1568.35 -1258.44 -38.495 1052.26 760.837 497.832 644.628 185.062 -1771.51 873.297 1378.73 1636.06 -624.516 -730.88 -149.07 321.267 314.521 -171.886 -360.2 -1260.62 33.9633 361.747 874.881 -503.459 -28.9842 -55.4353 -148.284 -1188.85 -249.97 179.755 240.42 -319.557 330.012 549.627 -608.669 -1342.68 -1091.54 -465.092 289.191 612.935 323.501 197.843 -814.9 809.776 -772.097 -56.1317 536.698 961.978 -392.022 698.535 523.629 199.799 -333.31 -320.373 -116.721 -188.434 193.627 523.231 1158.61 -84.0104 297.433 152.308 -43.6543 372.756 -567.693 -447.499 -226.001 281.724 644.633 -337.309 96.2972 624.388 762.391 249.406 287.535 838.506 229.639 921.771 865.136 228.513 -348.443 -356.171 -223.142 -309.666 38.8434 78.9037 -63.662 -143.745 -741.996 -133.948 178.361 137.9 269.805 329.67 -94.3526 -313.616 -178.501 379.284 348.392 51.0333 265.304 -63.2445 -106.043 -419.256 279.481 298.179 -300.316 -429.381 -592.114 459.439 -222.376 -99.7226 -183.978 -104.41 37.2775 234.134 -135.731 -267.563 16.5074 -2.38861 -141.389 -296.365 221.077 405.277 129.71 -274.791 -56.9541 96.6593 -118.128 64.6753 273.223 38.7854 -150.41 26.6255 -38.1345 -243.411 34.0389 118.946 24.4662 -101.342 181.652 -46.3484 -92.6562 163.959 89.5436 44.4205 99.1641 317.859 104.122 -68.528 147.614 -97.9486 136.103 347.322 -124.103 37.7235 -150.543 -164.541 -10.0048 92.0004 0.152426 57.9002 81.7537 -93.966 79.7908 71.8867 -124.15 -33.6356 19.4195 116.542 187.61 -63.9415 -42.784 -88.2323 90.5159 -67.479 14.0703 -91.189 31.7083 -165.696 -21.6932 61.2012 -12.5775 -9.62241 -27.0818 -27.1363 41.7101 55.5289 9.81714 -84.4709 174.614 21.8508 -31.3633 -42.3277 24.8322 16.1479 -42.5073 -122.57 16.5786 2.96288 94.924 7.70562 79.393 70.6392 -36.9017 -13.0037 51.6792 34.8613 81.1192 -19.739 -78.9509 41.2848 14.5846 49.2371 36.0013 5.69573 24.3378 -1.33211 23.2826 20.0553 5.59812 18.941 20.5923 -40.3509 11.5708 
52422.6 7168.97 4008.82 9777.95 -2303.86 -6811.64 2368.22 -4226.98 439.06 5337.53 -3241.43 25.8471 -1918.92 6244.46 -322.174 388.689 667.577 3293.76 3097.17 3049.02 -2915.4 1330.75 -2761.36 1467.48 -2175.75 1625.12 971.866 -922.956 -1450.44 -1770.82 1911.39 4066.36 3379.63 -151.083 3095.52 3691.56 1322.15 2018.67 -1723.67 -716.1 -136.908 12.2396 1434.01 2072.51 -690.843 -2975.58 420.119 534.186 -692.597 1841.41 -167.292 -562.232 -1728.38 -2394.84 -630.999 -287.832 1119.61 1558.57 -1558.67 -351.689 879.582 -3085 606.531 -617.307 -476.72 1290.7 215.491 2.9783 1272.22 321.572 627.631 -15.9943 1000.96 272.249 1442.07 -1088.48 184.6 -108.757 -696.439 -650.04 991.489 -91.9963 492.23 402.518 -1256.89 -175.614 -62.5827 -1259.96 -422.755 97.526 -157.528 287.486 888.126 1003.19 -97.2583 977.784 -166.914 1126.53 509.756 -252.177 -296.08 370.185 -514.902 115.341 -646.185 -580.424 856.881 -635.383 -560.343 499.538 1488.56 1117.49 -886.353 -995.436 394.471 -440.151 -14.4429 -2573.43 -1030.55 975.418 -1324.9 -1609 -1675.25 -818.913 335.232 857.348 -1143.33 129.845 -38.8605 489.426 -617.025 -533.724 -285.075 187.451 -666.693 -699.653 -156.796 2700.98 1585.92 851.571 -318.897 610.11 551.499 -264.071 91.3212 -119.856 535.035 -391.037 -230.534 20.9916 -520.04 -1100.09 -1253.05 -875.985 741.704 268.221 -211.409 -420.953 394.223 -921.122 -1649.77 -506.544 240.053 -108.52 515.71 -5.11779 213.71 -107.029 -266.525 12.1456 -401.497 -147.256 12.1985 -231.499 -353.872 -215.049 -285.123 -367.602 -371.526 -575.731 -493.871 -391.276 361.94 -56.9089 176.366 224.154 -258.058 -158.41 -107.588 -268.91 342.009 552.614 81.2899 -143.595 -414.611 42.3429 217.585 51.0884 -159.535 -275.404 402.114 322.272 68.577 -276.587 289.025 587.182 318.312 447.147 429.354 126.576 704.939 -225.342 190.17 444.147 191.671 -285.712 -133.556 -307.668 45.4204 474.034 4.50829 110.695 188.327 -1.82616 109.561 -97.611 75.8221 -208.92 11.0118 -205.344 194.72 43.5971 16.2457 -188.035 118.676 38.2346 73.9953 314.861 193.943 -65.2986 122.631 163.415 -188.449 -170.478 139.654 -2.11246 -157.459 -164.269 18.7109 45.7478 -32.1175 145.658 -153.485 1.34751 -186.009 -186.201 -21.6377 -197.308 -88.6866 277.476 177.703 -73.6896 68.0817 -103.181 -101.341 83.0572 89.9451 112.159 59.9857 90.644 90.4446 -136.703 -147.638 -1.75686 20.1877 36.3998 -24.3998 66.8703 42.9735 -4.72243 -33.8387 58.3776 55.5064 -41.2069 -6.46952 20.0478 -28.2876 -40.475 28.7693 22.9023 -111.475 146.41 -62.825 23.8493 28.7132 -87.6577 -120.543 -17.6401 48.5784 98.1051 38.2185 19.4853 -27.6612 11.123 21.3568 -44.0072 -33.9064 105.784 -25.7302 -68.5326 12.4769 -31.8194 89.7549 37.724 -9.79839 -30.034 -36.294 -35.1046 -2.71555 -6.68703 -21.5271 -27.3099 -25.0365 -47.9877 8.87423 27.6786 8.46959 
